tree
version=v4
num_class=1
num_tree_per_iteration=1
label_index=0
max_feature_idx=40
objective=lambdarank
feature_names=race_date venue_code exhibition_time exhibition_start_timing pred_course nat_win_rate motor_rate boat_rate weight branch course_run_count course_quinella_rate course_trifecta_rate course_1st_rate course_avg_st nige_count makuri_count sashi_count wind_speed wave_height local_win_rate venue_course_1st_rate venue_course_2nd_rate venue_course_3rd_rate st_std_dev series_avg_rank makuri_rate nige_rate inner_st_gap slit_formation anti_nige_potential wall_strength follow_potential tenji_z_score linear_rank is_linear_leader weight_diff high_wind_alert local_perf_diff wind_vector_long wind_vector_lat
feature_infos=-1:0:1:2:3:4:5:6:7:8:9:10:11:12:13:14:15:16:17:18:19:20:21:22:23:24:25:26:27:28:29:30:31:32:33:34:35:36:37:38:39:40:41:42:43:44:45:46:47:48:49:50:51:52:53:54:55:56:57:58:59:60:61:62:63:64:65:66:67:68:69:70:71:72:73:74:75:76:77:78:79:80:81:82:83:84:85:86:87:88:89:90:91:92:93:94:95:96:97:98:99:100:101:102:103:104:105:106:107:108:109:110:111:112:113:114:115:116:117:118:119:120:121:122:123:124:125:126:127:128:129:130:131:132:133:134:135:136:137:138:139:140:141:142:143:144:145:146:147:148:149:150:151:152:153:154:155:156:157:158:159:160:161:162:163:164:165:166:167:168:169:170:171:172:173:174:175:176:177:178:179:180:181:182:183:184:185:186:187:188:189:190:191:192:193:194:195:196:197:198:199:200:201:202:203:204:205:206:207:208:209:210:211:212:213:214:215:216:217:218:219:220:221:222:223:224:225:226:227:228:229:230:231:232:233:234:235:236:237:238:239:240:241:242:243:244:245:246:247:248:249:250:251:252:253:254:255:256:257:258:259:260:261:262:263:264:265:266:267:268:269:270:271:272:273:274:275:276:277:278:279:280:281:282:283:284:285:286:287:288:289:290:291:292:293:294:295:296:297:298:299:300:301:302:303:304:305:306:307:308:309:310:311:312:313:314:315:316:317:318:319:320:321:322:323:324:325:326:327:328:329:330:331:332:333:334:335:336:337:338:339:340:341:342:343:344:345:346:347:348:349:350:351:352:353:354:355:356:357:358:359:360:361:362:363:364:365:366:367:368:369:370:371:372:373:374:375:376:377:378:379:380:381:382:383:384:385:386:387:388:389:390:391:392:393:394:395:396:397:398:399:400:401:402:403:404:405:406:407:408:409:410:411:412:413:414:415:416:417:418:419:420:421:422:423:424:425:426:427:428:429:430:431:432:433:434:435:436:437:438:439:440:441:442:443:444:445:446:447:448:449:450:451:452:453:454:455:456:457:458:459:460:461:462:463:464:465:466:467:468:469:470:471:472:473:474:475:476:477:478:479:480:481:482:483:484:485:486:487:488:489:490:491:492:493:494:495:496:497:498:499:500:501:502:503:504:505:506:507:508:509:510:511:512:513:514:515:516:517:518:519:520:521:522:523:524:525:526:527:528:529:530:531:532:533:534:535:536:537:538:539:540:541:542:543:544:545:546:547:548:549:550 none none none [1:6] [0:8.9700000000000006] [0:85.709999999999994] [0:87.5] [42:67] -1:33:22:21:7:30:37:17:23:9:18:14:28:3:38:2:35:5:19:29:0:25:34:1:27:26:15:8:20:36:39:10:11:13:16:6:4:12:40:32:31 [3:6676] [1.3999999999999999:100] [6.5:100] [0:100] [0.11:0.31] [0:1289] [0:612] [0:451] [0:13] [0:16] [2.7000000000000002:8.1199999999999992] [0.80000000000000004:47.799999999999997] [7.5:22] [9.9000000000000004:21.699999999999999] [0.055875741081362201:0.33729143398152861] [1:6] [0:0.33333333333333331] [0:0.80000000000000004] none none [0:0.25] [3.6000000000000001:100] [0:13.366666666666667] none none none [-11.666666666666664:13.333333333333336] [0:1] [-2.3500000000000001:6.5999999999999996] [-13:7] [-8.4852813742385713:9.1923881554251192]
tree_sizes=5181 5480 5573 5496 5798 5647 5446 5588 5528 5595 5704 5612 5605 5657 5676 5399 5677 5220 5747 5672 5504 5558 5654 5644 5403 5603 5224 5354 5304 4978 5612 5577 5745

Tree=0
num_leaves=31
num_cat=17
split_feature=5 13 0 5 30 15 0 0 0 0 31 13 0 0 0 0 0 5 0 20 0 0 0 0 30 0 31 20 31 0
split_gain=921.706 460.958 159.611 104.07 92.1138 69.8969 68.3211 65.0994 60.7853 55.4289 43.1463 43.0843 68.7913 61.5635 38.5475 38.312 36.1052 34.7144 35.1605 33.3206 31.0804 30.4832 26.6959 25.6367 24.8182 24.4968 23.657 22.7306 21.3207 18.0477
threshold=5.035000000000001 23.150000000000002 0 3.9750000000000005 0.021769410527938206 615.50000000000011 1 2 3 4 24.950000000000003 8.6500000000000004 5 6 7 8 9 5.8650000000000011 10 5.705000000000001 11 12 13 14 0.04504057531031181 15 16.050000000000004 5.0250000000000012 38.650000000000013 16
decision_type=2 10 9 2 8 2 9 9 9 9 10 10 9 9 9 9 9 2 9 10 9 9 9 9 10 9 10 10 10 9
left_child=3 2 -2 9 7 15 -5 -4 -6 -1 19 12 26 -13 -12 -3 -10 18 -18 -9 -15 -14 -20 -11 29 -23 -8 -17 -19 -22
right_child=1 5 4 6 8 -7 11 10 16 23 14 13 21 20 -16 27 17 28 22 -21 24 25 -24 -25 -26 -27 -28 -29 -30 -31
leaf_value=0.0092852402599352905 -0.057291967926344195 -0.0088230743297029648 0.042901781400142426 0.022055827421641798 -0.034958031042587032 0.058549187933742801 0.055899627501228469 -0.021958410643555821 -0.020822936026004216 -0.0073932739083091906 0.023996290966339276 0.036868396442496655 0.0069254985649941292 0.021788048420436482 -0.037397462865405053 0.005649370238521783 0.046851706454780193 0.036488284843937575 0.036949243594234092 0.014948775446786057 0.00469642457278183 -0.0029807918692865594 -0.0034097785560943342 -0.060135977557432101 0.001615505429752302 -0.049275447651074819 -0.020256413635253177 0.038262462043224421 0.014502902786796369 -0.037178692266972915
leaf_weight=39.965994128026068 104.37881051469594 55.313798442482948 40.070374681614339 74.588054791092873 53.154521413147449 379.96691046655178 27.712046587839723 117.13502137735486 55.014094507321715 40.836957135237753 25.004456460475922 43.959105857647955 34.997638273984194 33.138110261410475 233.35429969336838 58.032341819256544 40.469435220584273 294.32283789198846 37.182344566099346 127.96255044639111 34.056113072670996 43.587376859039068 303.99215269368142 396.44789102766663 63.593217049725354 399.63458806741983 16.134584933519363 673.35028754267842 176.3452110728249 236.10308749508113
leaf_count=389 1236 496 314 624 641 1289 167 1260 628 447 237 272 376 249 3011 281 305 2474 309 1152 248 457 3548 5414 840 5242 226 3681 1932 2257
internal_value=-3.5379e-10 0.0170123 -0.00034342 -0.0317965 0.00396341 0.0409393 -0.0226857 -0.0124593 0.0132981 -0.0510299 -0.0173726 -0.0262183 -0.0360314 -0.0143869 -0.0319744 0.0324339 0.0163305 0.0189423 0.00795843 -0.0026896 -0.0209617 -0.0410328 0.0019156 -0.0554859 -0.0257166 -0.044889 0.022699 0.0351935 0.028251 -0.0331023
internal_weight=4259.8 2775.05 1608.39 1484.75 1504.01 1166.66 1007.5 543.527 960.481 477.251 503.456 932.916 522.066 410.85 258.359 786.696 907.326 852.312 381.644 245.098 366.891 478.22 341.174 437.285 333.752 443.222 43.8466 731.383 470.668 270.159
internal_count=40002 22794 17047 17208 15811 5747 10958 5974 9837 6250 5660 10334 6468 3866 3248 4458 9196 8568 4162 2412 3594 6075 3857 5861 3345 5699 393 3962 4406 2505
cat_boundaries=0 16 34 51 69 86 102 119 135 151 168 185 202 219 236 253 269 286
cat_threshold=32 0 1610612736 10486792 0 0 16 0 260 393224 406272 0 0 17408 3866880 2944 268435488 256 65536 33555472 524320 65552 3489662978 268435456 0 0 33 2 1 8651265 1073741824 2 0 34 1078462592 4195328 2101248 536871168 2415960064 152044544 536871168 513 0 256 32768 262144 0 0 32 0 2105856 2148008000 1 2147483648 304 134217728 134217792 32 0 32768 32768 134219776 2097152 2147549521 1 1140850688 2149580800 2560 64 2113536 137363460 64 537067520 2147483648 541065344 4457728 264224 0 0 16384 10747904 65536 1048576 256 8388608 32 272 1 18885760 268435456 67108880 2105346 512 513 16384 2621440 4325376 64 0 67240000 16384 2097152 1048578 134479872 34603008 128 134234112 4352 2097152 33554432 1572864 67108864 0 3211264 0 33556480 167772168 4194304 269484036 8192 1073741824 458752 64 1703936 2048 403701792 12582912 25165824 16 0 9437186 0 0 4206592 65536 0 268484608 536870912 14417920 0 0 144 2147483648 262752 507904 0 0 0 0 1572864 5120 1048578 131072 66050 67371009 1048584 0 1073741828 574619648 2 2113536 128 33554432 268435456 544 2147483648 17408 2416967712 268440576 4210688 0 0 4096 2147500032 25296896 1048644 0 301989888 536870912 32896 0 1145569280 64 8650784 1073741824 1 16 131584 67239968 0 131072 0 68157440 4194304 2684354880 786434 32768 4194304 0 268439552 536887296 8388736 167772160 1124073476 8404992 16777220 0 67108900 0 536870912 0 0 25165828 256 1342177282 671088640 2147483680 1073807364 64 8388608 32 32 0 1075838976 1090519057 134250496 8388624 2048 12583936 8388624 17 32768 16777216 8388608 34603016 4198656 201327104 67142664 4194305 4096 8 142606336 0 16875594 8421376 2684354560 65536 1207959552 536870912 2147484032 0 0 64 0 525824 80 2147500608 1057792 135266816 524289 4194304 2147483648 1074792448 2147483712 524288 134217728 2097156 16777216 16393 16777216 2214592512 266256 8 1 524352 0 2147483648 268435456 402653192 72 4202496 8388608 16777216 2147483712 2215116800 4194304
is_linear=0
shrinkage=0.05


Tree=1
num_leaves=31
num_cat=20
split_feature=5 15 25 0 31 0 0 0 0 0 20 0 0 5 0 0 0 31 0 0 0 15 0 0 0 0 0 5 30 0
split_gain=1732.55 883.545 334.023 314.079 228.332 299.053 247.181 218.309 210.286 194.984 180.733 311.25 225.508 174.947 169.518 162.008 156.382 144.2 224.688 153.658 138.137 129.894 126.304 122.671 108.719 103.558 99.8249 112.924 98.1013 152.26
threshold=4.6550000000000011 359.50000000000006 2.5500000000000003 0 18.650000000000002 1 2 3 4 5 5.4850000000000012 6 7 2.8050000000000002 8 9 10 29.850000000000005 11 12 13 615.50000000000011 14 15 16 17 18 6.6650000000000009 0.048824639662044055 19
decision_type=2 2 2 9 10 9 9 9 9 9 10 9 9 2 9 9 9 10 9 9 9 2 9 9 9 9 9 2 10 9
left_child=9 2 8 -4 7 -6 -7 -5 -2 -1 11 -8 -12 -11 -15 -9 -13 19 -19 -16 -14 -3 -18 -20 -21 -10 -17 -28 29 -27
right_child=1 21 3 4 5 6 10 15 25 13 12 16 20 14 17 26 22 18 23 24 -22 -23 -24 -25 -26 28 27 -29 -30 -31
leaf_value=-0.073037320057616331 0.056978340802787603 0.025235810639833819 -0.047020171541185637 -0.035565603050876325 -0.062213624912740732 0.037024844519835974 0.037036577851895278 0.052257055206638571 -0.023996786728268899 -0.068286516079413467 0.046068817343398169 0.020026272625182969 -0.035533312740433837 0.011633410023952838 0.019803754879396337 0.04078903362557159 0.010446874564561575 0.021804008446019946 0.0012471343637759035 -0.060562469602673502 0.00093024528916972886 0.049617710321750337 -0.036801285250982162 -0.059255902417132279 -0.020228973751360554 0.049356820813689625 0.0039191419276183503 0.036486846507205434 0.033496539042898663 0.0039526773809150919
leaf_weight=230.42475628480315 302.71648200787604 1077.598286472261 357.11073080636561 233.65408441051841 219.86511598806828 334.5845391266048 211.34871942363679 241.82202107459307 166.90659442730248 228.91307420656085 244.32499101012945 159.38900186400861 284.29069261439145 317.9130883552134 216.43536938074976 237.4851640984416 159.84856077097356 117.02949508465827 103.57576701790094 181.38214253541082 2214.3272628299892 1107.8277262672782 1302.940940962173 728.67030923906714 1923.2473998833448 202.45843521133065 2414.3466863660142 299.14479387179017 594.01051871478558 1456.1225579250604
leaf_count=882 413 1192 1064 495 642 612 348 338 360 979 396 315 767 743 484 351 343 294 285 603 5025 1307 3898 3070 5671 293 4549 408 835 3040
internal_value=1.00585e-10 0.0084249 0.00294655 -0.00173465 0.00020988 -0.00646421 -0.00383386 0.0102046 0.0182761 -0.0287702 -0.00689524 -0.0190634 0.00121348 -0.025839 -0.023203 0.0136228 -0.0264379 -0.0265439 -0.0430425 -0.0199107 -0.00334366 0.0375954 -0.0316023 -0.0518007 -0.023975 0.0131441 0.0102911 0.00748195 0.0159899 0.00981645
internal_weight=17869.7 13822.1 11636.7 8914.48 8557.37 5130.92 4911.05 3426.45 2722.21 4047.59 4576.47 1833.53 2742.94 3817.17 3588.25 3192.8 1622.18 3270.34 949.276 2321.06 2498.62 2185.43 1462.79 832.246 2104.63 2419.5 2950.98 2713.49 2252.59 1658.58
internal_count=40002 26991 24492 19551 18487 12346 11704 6141 4941 13011 11092 4904 6188 12129 11150 5646 4556 10407 3649 6758 5792 2499 4241 3355 6274 4528 5308 4957 4168 3333
cat_boundaries=0 17 34 51 69 86 103 120 137 154 171 188 205 221 239 256 274 291 309 326 343
cat_threshold=0 1073741824 262144 10485761 167772160 67108992 16778256 67109120 67108864 147456 4160 0 12583168 9 1057024 524416 67108864 0 131072 2 768 8 1048576 537591808 4096 16388 2097152 139264 33554432 805634056 262304 16777217 1 276824064 4 8196 0 1744830464 524416 272961548 258 17825792 33554448 1152 0 1572864 32 10485760 32 0 536870912 1082130433 4 32 0 341311488 8 67109120 8388608 1048601 536871168 16777216 134250496 131648 2149580800 0 134217728 32776 64 1073741824 1107297026 0 128 256 67108928 16793600 67111680 0 544 80 17408 8 0 8192 1048608 235143168 0 8388608 0 2 536875008 69892 2097153 2097280 33562624 134217920 603979776 524288 0 0 2415919112 2148564998 672137216 131072 256 4194816 0 1881145440 2 2348810244 8388610 269484032 704643072 16777216 66 0 67108864 64 0 4202500 512 2056 1069056 66 71303168 0 1052736 1073741828 16777216 0 268435456 8 67109376 4736000 67108866 268435456 18876416 18874370 1 12583936 131072 2281701376 1747058816 268436480 66 8388608 1073741824 0 134217730 4194304 2281701376 142606592 1073741824 64 0 4194304 2048 4 512 16777472 2684559360 2101248 0 0 4 65536 536936448 1342177536 32776 2155880449 16 589952 268435472 32 65536 65536 2147483664 2099200 1056 0 2128 8388613 134217744 0 16777216 0 8202 262152 8192 537395520 33554592 512 0 0 67112960 131584 134217728 5120 0 18088448 570425344 88145920 18432 524288 16384 0 134234112 16793601 2214658048 17472 4194304 512 1883308032 67125248 33554688 131072 2105344 67174400 0 3 65536 0 4194304 0 4194304 0 0 4 2 134349056 33923140 276 4099 3221225472 268500992 537395200 1536 34078720 8 142622720 32864 131072 268436480 1048576 16384 4194305 0 1075970048 0 33554432 0 1073774656 0 3221241856 134283264 1074266112 0 37781508 0 0 65568 67108880 3221225472 17073408 0 4 557120 0 1075855360 0 4096 134217776 34080768 64 2147487744 320 512 1152 0 269484608 2281705472 131584 0 4100 16418 2147746304 1048576 8454144 16 4194304 788480 4 1048576 1048577 1050624 64 0 4608 2375680 65538 262144 67108864 16785408 4195328 0 32768 512 2147483712 1 40 67239936 16777282 67108864 294912 1115680 2097152 16384 65536 0 536870912 2147483648 2147483664 0 0 4210688 268566528 303038592 16384 0 32768 306184208 98304 537396352 0 16384 1048578 32768 524800 131072 17170434 0 4 8388608
is_linear=0
shrinkage=0.05


Tree=2
num_leaves=31
num_cat=22
split_feature=13 5 15 0 5 0 0 0 0 0 20 0 0 0 0 5 0 0 31 0 0 0 30 0 0 0 0 0 0 0
split_gain=1462.29 598.159 343.477 271.037 243.758 231.837 205.131 170.72 158.794 125.581 120.953 120.746 110.489 100.015 97.751 91.3616 97.294 86.3024 85.1704 237.277 117.13 94.7007 92.5192 179.702 129.379 120.516 88.4108 82.2624 75.8293 73.5552
threshold=21.950000000000003 4.535000000000001 589.50000000000011 0 6.7550000000000008 1 2 3 4 5 4.4850000000000012 6 7 8 9 5.5950000000000006 10 11 43.850000000000001 12 13 14 0.013175871839891452 15 16 17 18 19 20 21
decision_type=10 2 2 9 2 9 9 9 9 9 8 9 9 9 9 2 9 9 10 9 9 9 10 9 9 9 9 9 9 9
left_child=1 7 5 -3 6 -2 -5 -1 -7 -9 -8 -12 -10 -13 -6 -14 -17 -11 20 -20 -15 -21 23 -22 -24 -25 -26 -27 -23 -29
right_child=2 3 -4 4 14 8 10 9 12 17 11 13 15 18 -16 16 -18 -19 19 21 22 28 24 25 26 27 -28 29 -30 -31
leaf_value=0.0098797541754770922 -0.037159883974542222 -0.04711290622108566 0.050237835195950244 -0.042588461889787779 -0.014472414179253521 0.058331568727523375 -0.03834371093056884 -0.078215811170266339 0.048440471331836932 -0.067035471454529108 -0.027572569029465723 0.023528791675618627 -6.0449610996397269e-06 -0.029160006282629089 0.027038610823060239 0.052511210333440798 0.015689404250537817 -0.02716843835206989 0.04433114363549473 0.020230890702513299 0.038508131530870883 0.011491395589387179 0.047247966914867386 -0.049016211136556603 -0.028927257807758278 0.023928884655414193 0.0094138025470193714 0.019021083751573381 -0.035740748263502729 -0.013233732562333884
leaf_weight=261.5283042951487 181.05292818695307 321.54015105031431 976.38080608472228 324.67595093883574 163.9051753655076 240.76316973939538 227.37163661234081 140.6742489952594 244.90769059956074 146.30698390025645 398.85136409662664 427.57876825891435 847.6201514499262 281.61280446499586 932.73772135004401 194.94827494770288 1883.9560839906335 2416.0434636925347 140.10034236870706 103.23052513599396 212.69573372416198 97.261155931279063 206.40270898491144 161.59712433069944 153.17613512277603 206.58785470575094 2003.1960440929979 195.54540756717324 686.27876414731145 1336.0246175732464
leaf_count=677 403 1177 1408 1049 530 310 749 737 331 738 1119 928 1762 745 1740 240 3205 8957 250 224 391 207 321 462 357 408 4111 432 2318 3716
internal_value=3.08135e-11 -0.00947594 0.0239405 -0.0027862 -0.00100217 0.0167948 -0.00436463 -0.0288382 0.0197088 -0.0325006 -0.00248367 -0.00125393 0.0166025 0.000479709 0.0209489 0.0137823 0.0194704 -0.0296965 -0.00126194 -0.0143232 0.00155498 -0.0238212 0.00354502 -0.00405026 0.0103506 -0.00897056 0.00656932 -0.00498841 -0.0298069 -0.00901888
internal_weight=16114.6 11544.9 4569.63 8580.37 8258.83 3593.25 7162.19 2964.55 3412.2 2703.02 6837.51 6610.14 3171.43 6211.29 1096.64 2926.52 2078.9 2562.35 5783.71 1026.87 4756.84 886.77 4475.23 2112.45 2362.77 1899.76 2156.37 1738.16 783.54 1531.57
internal_count=40002 32343 7659 21234 20057 6251 17787 11109 5848 10432 16738 15989 5538 14870 2270 5207 3445 9695 13942 2999 10943 2749 10198 5409 4789 5018 4468 4556 2525 4148
cat_boundaries=0 17 33 49 66 83 101 119 137 155 171 188 205 223 240 257 275 292 309 327 344 361 379
cat_threshold=0 0 562036736 2150105088 0 0 1048576 33554432 388 131144 262272 256 268452096 21504 1769472 2688 64 0 4096 2147942464 8536065 33562752 0 128 0 32 0 3072 1048578 12582912 16777216 138412032 2 2181038112 32768 256 4194304 0 64 1342177548 262144 4194336 16777218 1180416 4194304 262656 268437792 134217760 3221225472 16777224 4 8424448 147456 134217800 671096976 256 536870912 4194304 35651584 0 2 1 512 134217728 1073807360 32 1048608 16777218 16777216 2147483648 0 2097152 1048576 33558528 4 96 2490368 8389136 16400 8404992 0 2684370944 1081345 0 0 0 0 12288 0 134217728 2148663556 8192 67108864 524288 2621972 16777216 8388608 10 32768 3279978752 8 8454146 16908297 0 0 131072 262144 524304 4096 8194 10485792 2101250 41947136 0 32776 1280 17301504 1024 48 8389120 8 0 2048 147968 16810048 262144 17301504 0 524296 64 67145984 393216 301989888 2 134219776 2415920128 32 1073872896 4096 2228288 33554432 0 1280 536870912 17 332288 2048 4194336 1048578 536870912 1207959552 8 131106 131072 2 0 0 3489660928 9699329 0 0 12 0 65 385024 0 0 0 0 2359296 5376 32832 536870912 8388608 32768 0 262656 0 16388 32770 4 134217728 1024 448 2100224 1536 16777216 16842832 4231168 8388608 4194308 33554434 538968065 17350656 2097152 128 1073745920 0 8192 128 16 1107296272 805339136 6 269484032 0 1073758208 262144 0 872939616 4097 83886080 16908288 1048585 1024 1024 134217728 33824 17301504 0 1024 37748736 4 0 16384 0 2048 32866 648 33554432 16777216 67108865 536870912 12 67108864 3237 8192 536887296 0 9 524288 0 0 0 2304 0 134217728 268443904 67108864 536870912 0 16416 2097284 67117056 71303232 0 537477129 1024 0 0 163840 78848 2097154 2147483648 2097184 671744 134217744 536870912 2147483648 0 589888 128 10485768 16 8 4096 12591104 524800 134218880 16777217 1140850704 8192 512 2048 0 33556480 131200 4096 0 4 33562624 1074266112 402919432 0 262656 1024 285212672 8396816 8192 0 8 0 50339840 131072 1073778688 0 301993984 8192 8912896 3072 1310720 0 32770 1074790400 0 4096 0 16809984 134221824 536936448 0 0 524288 65 8388617 8704 72 0 1049120 0 0 1073741824 2164260864 134287362 8422400 1107296256 0 32769 512 0 553910272 67108865 5 2097664 0 8390912 6144 1090551808 0 65536 0 2 268435456 201330688 1115684864 67239936 0 2151809152 16384 536870912 8396800 8192 2097280 4194320 16842752 5505280 273694720 10488320 65536 268468224 0 65552 16777281 0 0 32768 0 2 68
is_linear=0
shrinkage=0.05


Tree=3
num_leaves=31
num_cat=21
split_feature=5 4 5 0 0 15 0 0 0 20 0 0 0 0 15 31 0 0 0 0 0 4 0 0 0 24 0 0 0 9
split_gain=1154.66 561.799 298.814 247.23 240.93 182.671 171.724 155.195 153.285 145.154 173.595 150.914 138.506 134.293 113.69 90.6851 199.834 114.059 111.598 93.742 87.3094 83.5502 175.713 127.682 119.702 83.0934 132.135 81.2416 79.0295 72.5914
threshold=5.6750000000000007 1.5000000000000002 4.1850000000000014 0 1 227.50000000000003 2 3 4 6.4250000000000007 5 6 7 8 615.50000000000011 35.250000000000007 9 10 11 12 13 4.5000000000000009 14 15 16 0.078322781964253116 17 18 19 20
decision_type=2 2 2 9 9 2 9 9 9 10 9 9 9 9 2 10 9 9 9 9 9 2 9 9 9 2 9 9 9 9
left_child=2 14 8 -3 -4 6 -6 -5 -1 10 -9 -11 -12 -8 -2 17 -17 -15 -18 -19 -10 23 -23 -21 -24 -25 -27 -13 -14 -26
right_child=1 3 4 7 5 -7 13 9 20 11 12 27 28 15 -16 16 18 19 -20 21 -22 22 24 25 29 26 -28 -29 -30 -31
leaf_value=0.012115899879161882 0.027580211798783241 -0.034295372711674897 -0.054742672066571442 0.040392168760618359 0.025124134328362264 0.02293689145970142 -0.04768991356620355 -0.047217884082606458 0.0048039102140615218 -0.013458588098257085 0.039059417756903504 0.056193553380863362 0.027001267805575425 0.026782285841465966 0.053023233356788269 0.03892263632075068 0.017771791943514709 -0.043715049121797731 -0.035563345484855777 0.039946224643526679 -0.037642544779371109 0.035353151939267746 0.01918858457423947 0.010124567334168194 -0.0079217742319308004 0.027399574928696963 -0.02226098943880641 0.019460297854831471 -0.0030561359821977842 -0.04229798059283546
leaf_weight=195.06277118250728 1052.4106256756932 344.39253248274326 250.25180602446198 354.60340416431427 344.33349769748747 512.6057777479291 228.79690516553819 174.04935886710882 135.7840792555362 326.02139957342297 232.2409028802067 168.82017473876476 229.81946536898613 253.10635658167303 753.35836458951235 113.85565007850528 108.86090173106641 160.00724835414439 827.61751148663461 180.97233180515468 1705.1481654974632 134.14360680989921 130.51108282804489 651.41282669082284 238.88690058607608 155.89469359070063 725.87935726344585 1412.7625609338284 2472.4573199320585 534.53903580177575
leaf_count=504 1550 1159 945 619 828 863 870 593 435 971 397 232 413 545 1230 236 322 533 3338 321 7324 275 314 1389 715 289 2069 2742 6037 1944
internal_value=6.55157e-11 0.0138836 -0.0137615 0.00620222 -0.00775266 -0.00542102 -0.00846784 0.00884645 -0.0301463 0.00654049 -0.000109353 0.0174111 0.00283595 -0.0111019 0.0381949 -0.00900802 -0.02176 -0.00480507 -0.0292411 -0.00761617 -0.0345027 -0.00536682 -0.016581 0.00139307 -0.024409 -0.00339601 -0.0134229 0.0237097 -0.000409729 -0.0319169
internal_weight=15108.6 7520.94 7587.67 5715.17 5551.68 5301.42 4788.82 5370.77 2036 5016.17 3108.57 1907.6 2934.52 4444.48 1805.77 4215.69 1050.33 3165.35 936.478 2912.25 1840.93 2752.24 1038.08 1714.16 903.937 1533.19 881.774 1581.58 2702.28 773.426
internal_count=40002 15943 24059 13163 15796 14851 13988 12004 8263 11385 7440 3945 6847 13160 2780 12290 3896 8394 3660 7849 7759 7316 3248 4068 2973 3747 2358 2974 6450 2659
cat_boundaries=0 17 35 52 70 88 105 121 138 155 172 189 207 225 243 261 277 295 312 329 346 347
cat_threshold=0 65537 1074266112 10486784 0 1 16 262144 258 10887168 536876032 64 16 67108865 1572864 17024 2048 0 0 4096 536905728 100663305 2048 1327360 2231369728 16777216 1024 134217728 262176 131072 268435584 67108864 0 2214593568 20 1024 344192 19398656 134217728 268435456 65585 536870912 1 0 33554432 0 268468288 0 205520901 2 147488 4194304 67108864 4195840 33554496 536870912 67108928 258 16640 2214592512 16779264 67109376 0 0 0 805306512 1056 33554432 83887104 20 268566528 134217728 36864 131072 8 4196480 21234944 294912 0 2147484928 268582912 2097152 134217729 128 16384 4259840 0 32 32778 33554432 128 2148274176 2 0 72 675283968 4 32 770 33554432 0 33554432 64 4720640 33554433 536870912 0 2952790016 5242881 262144 524288 132 16777216 1536 114688 128 0 4 9216 2555904 4352 12288 8192 4194304 0 537135233 2416050180 271360 16777728 524304 0 16384 131072 32768 1073742848 0 1048580 1073741824 262144 34304 4456449 0 0 0 4195328 1073741824 0 16777248 16384 260 1073807360 118784 805316096 32768 3145728 134217728 67108868 32 0 1092681760 8 16781312 2 1056768 2281705472 32768 16777233 0 2621440 16448 0 537460736 54525952 268439552 3072 67108864 134217728 34603008 8388608 8192 0 270532624 1074266112 0 33554976 8388608 16809984 268435459 268443648 270565376 536870912 0 1073889280 16448 0 8192 16480 1073745920 1051136 0 540672 2147483648 1073742848 6152 536870912 4 32 2162688 524288 96 131072 16779264 32776 0 2097408 1 6144 8 33554432 0 8448 20736 1073741824 536870912 32 2621441 32768 4210752 268501640 3254779904 0 268435458 4194370 16384 2048 1081344 0 0 2147549184 0 0 32 1 0 67108864 66048 16777360 2105348 529412 131073 33280 131072 0 272629828 0 268435456 393216 0 65536 131072 8 536870960 2097152 8388608 66560 0 134217728 65536 0 2147549184 4194308 33554464 2147483648 16830472 72 1082130432 2281701376 201457792 1207959552 8208 256 2147749888 268435456 33554432 536870912 538968064 8388608 18 1073741834 16 0 4 8396816 16779776 64 0 89 65536 268435456 163952 67117056 2097152 281019392 2097152 9437185 541196288 65536 1572864 0 134217728 67108864 512 18948 262144 327808 2147483654 4194560 83886080 0 16388 0 32 65536 16384 8192 0 8320 0 167772160 262144 64 33 33556480 65536 0 4718592 1084227584 2181300224 128 134217728 134217857 0 0 0 65536 545292704 478413473
is_linear=0
shrinkage=0.05


Tree=4
num_leaves=31
num_cat=22
split_feature=5 15 5 0 25 0 0 13 0 0 0 0 0 20 0 0 0 0 0 0 0 0 0 5 0 0 0 31 0 0
split_gain=952.801 579.773 174.776 171.779 168.822 176.049 158.531 123.913 182.057 157.893 130.684 124.448 121.985 98.5847 141.1 130.926 106.465 93.0251 86.7752 79.7562 70.226 79.0177 66.4651 70.4368 110.245 81.8309 81.5967 64.7778 157.152 89.9043
threshold=5.0950000000000006 594.50000000000011 3.6150000000000007 0 2.0833333333333335 1 2 18.050000000000004 3 4 5 6 7 4.8750000000000009 8 9 10 11 12 13 14 15 16 6.2350000000000012 17 18 19 17.450000000000003 20 21
decision_type=2 2 2 9 2 9 9 10 9 9 9 9 9 10 9 9 9 9 9 9 9 9 9 2 9 9 9 10 9 9
left_child=2 4 3 -1 19 -6 -4 8 -7 -9 -11 -10 -8 15 -15 -14 -17 -5 -13 -2 -19 -22 -20 24 -24 -25 -26 29 -29 -18
right_child=1 -3 6 17 5 7 12 9 11 10 -12 18 13 14 -16 16 27 20 22 -21 21 -23 23 25 26 -27 -28 28 -30 -31
leaf_value=0.023148510673057288 0.048844463958185355 0.051598623955743141 -0.061504175296942944 0.0024090233224008241 -0.03090860454894185 -0.047557027450931579 0.017789503953387405 0.053058560800528003 0.032072344617407413 -0.027871790686295323 0.012221777760469212 -0.033582362413665481 -0.069312958648630713 0.041843682273882618 -0.0092616661923880274 0.013646448256547389 0.023831139679745206 -0.00855395763026328 -0.026842357671503538 0.015783058013946635 -0.017740160645314813 -0.07645295719288471 -0.043410548724835796 0.042251400557831852 0.029895159500764209 0.0060192296052646657 -0.0031545540874962047 0.024253140304936135 -0.037298071432073275 -0.017754935055165566
leaf_weight=90.918796664103866 213.8833700530231 743.56116769090295 160.35324718989432 81.960906110703945 365.14793712552637 192.112514289096 309.63201346993446 210.5382694453001 289.68928757682443 213.32270443812013 2376.2226595375687 188.70679411478341 118.94285992905498 149.86942454054952 861.00893083401024 250.06382981408387 139.25590063631535 79.102308024652302 199.9794469922781 1262.4200862310827 94.301237940788269 373.79728630837053 146.03271327540278 184.10409896448255 197.96826050430536 849.34350732713938 1821.1791416797787 113.80522553063929 863.8072801027447 1126.3423198498785
leaf_count=233 333 1353 779 270 1285 780 858 316 599 549 4620 676 599 282 2649 669 311 288 674 2539 326 2331 501 326 426 2060 5190 325 4215 3640
internal_value=1.15026e-10 0.00921938 -0.0181091 -0.040825 0.00560179 0.00245732 -0.0141128 0.00426974 -0.00129476 0.0123714 0.00882442 0.0011174 -0.0119935 -0.0145808 -0.00136265 -0.0197518 -0.0170411 -0.0496485 -0.00146454 0.0210107 -0.057349 -0.0652434 0.000412085 0.00219439 -0.00292483 0.0129409 0.00021718 -0.0205074 -0.0302662 -0.0131311
internal_weight=14267.4 9454.21 4813.16 720.081 8710.65 7234.35 4093.08 6869.2 4069.12 2800.08 2589.55 3877 3932.73 3623.1 1010.88 2612.22 2493.27 629.162 3587.31 1476.3 547.201 468.099 3398.61 3198.63 2165.18 1033.45 2019.15 2243.21 977.613 1265.6
internal_count=40002 22227 17775 3448 20874 18002 14327 16717 11232 5485 5169 10452 13548 12690 2931 9759 9160 3215 9853 2872 2945 2657 9177 8503 6117 2386 5616 8491 4540 3951
cat_boundaries=0 15 32 49 67 85 102 119 137 154 172 187 205 222 239 256 274 291 308 325 343 360 378
cat_threshold=16777216 2098720 0 0 1073758216 0 22282240 32768 268435456 2147484672 131072 8388648 136380416 136 4195346 2147483648 134217984 536871040 10486801 16 1048576 553648128 0 68157568 2514944 4352 1024 0 0 1572864 525440 4456448 4160 64 8 1073743872 8388608 262152 135266304 2097664 8 16778272 0 75497472 0 1073779072 16 545259520 2147484672 134217824 0 65536 0 262144 32768 0 65536 4356 4 1318912 4 393232 7176 570622976 2816 0 48 512 1032 16777216 2147483648 393216 512 134479872 0 2164260872 16777220 3145728 67108864 925696 10485760 17408 2147483680 1025 16 0 8404992 3222405184 4194304 0 67108864 0 8388672 8389217 98320 525312 262144 69207040 0 262208 2 1073742336 12288 8388624 2097152 1073741824 268435968 2151677952 8192 11534336 262145 258 0 2490368 67108864 1074266112 1 10485768 2097408 134217760 256 65537 134348816 134217728 537067521 1073741824 2 9437184 536870928 0 0 67108880 262720 1073741826 131074 4194368 32 8 134217730 41944640 1184 17408 524320 805372928 1 0 384 32 0 2147483648 8388612 4096 4210688 268959748 8 0 33554448 536870944 16384 2147483648 4210688 67141633 12288 2147483776 0 0 128 272629760 4096 268697616 524292 8 0 536875136 16777250 33554432 2147483696 134217860 0 268435456 268451844 1073741824 2160590848 134283328 8388641 134217728 134227968 335560960 134217732 256 536903680 0 0 512 1207959584 65536 1 0 16779264 536870920 2415919360 0 100663320 2164262912 64 33554944 2147516416 1082130432 786432 134742048 0 3221225552 0 16777216 16777216 2560 2048 4352 131585 0 45056 268435456 1108344896 16384 0 33718272 16 68190208 553664640 8 67112960 2114048 8 1552 0 3 0 524288 168034304 138936320 67108928 0 134217728 84 0 256 68096 2097152 4194306 268435456 2360320 1077936128 33554432 67125248 4194304 268566528 2101760 33554432 37748736 0 2214592512 128 268435456 128 151027712 0 0 1207959552 268435456 536870976 33554432 25165856 67174688 1 1 1073741824 402677760 4194304 0 67108868 0 50331664 2285895680 524296 4194432 150994944 268443653 268451840 10486018 0 16384 262272 536871936 1179649 33591296 2112 2304 33554432 2151677952 8 128 16384 4194304 0 536870976 2554331168 0 16777344 262272 0 1179648 536870916 2186281092 16777472 33056 4194304 48 536871040 16777216 0 536873984 65536 406847520 0 1073741824 1073741824 6291456 64 64 2097152 0 138543616 268435969 0 402654208 1025 32776 167772160 67108864 1073741888 0 135168 12 2097152 101187604 17408 0 64 16640 33554434 64 4194304 134221824 16777216 34603008 4227072 2 0 134217728 570703872 268436496 262152 41088 16392 256 8388608 2147483904 1073743872 0 526336 1048608 10246 0 33554432 16777216 33619976 0 64
is_linear=0
shrinkage=0.05


Tree=5
num_leaves=31
num_cat=21
split_feature=15 5 5 0 0 0 0 15 0 0 0 0 5 0 0 5 0 13 31 0 0 0 13 0 0 0 0 0 0 0
split_gain=797.46 499.31 144.929 205.044 180.558 144.569 141.772 121.323 112.129 106.62 93.7663 91.7565 74.6642 102.827 83.6749 67.3619 62.2566 58.5381 63.7037 124.417 80.0393 75.9324 55.0633 133.469 116.114 95.8965 61.8894 59.3113 52.8242 52.4981
threshold=359.50000000000006 4.6750000000000007 6.035000000000001 0 1 2 3 615.50000000000011 4 5 6 7 7.3650000000000011 8 9 2.8050000000000002 10 2.8500000000000001 35.45000000000001 11 12 13 9.0500000000000025 14 15 16 17 18 19 20
decision_type=2 2 2 9 9 9 9 2 9 9 9 9 2 9 9 2 9 8 10 9 9 9 10 9 9 9 9 9 9 9
left_child=1 8 4 -4 -3 -5 -6 -2 -1 -7 -8 -10 13 -11 -15 -13 -12 -18 20 -20 -19 -21 24 -24 -17 -26 -25 -27 -22 -23
right_child=7 2 3 5 6 9 10 -9 11 12 16 15 -14 14 -16 22 17 18 19 21 28 29 23 26 25 27 -28 -29 -30 -31
leaf_value=0.0091870622009048858 0.021867569098317104 -0.050157551421303195 -0.035406992078201416 0.049051146087771225 0.027491130452039297 -0.017433725449520265 -0.035125041647313775 0.050931884439068036 -0.062226741145843367 -0.023267370681052495 0.01635831331593102 -0.056544013749297406 0.030075565927029188 0.038684834509482784 0.0083922764548587502 -0.075649862765908016 -0.039483873406045901 -0.031588680829287369 0.032606169603855373 0.017664715302101546 0.025993368566295628 0.0069054928740743086 0.036838167798831721 0.015679261425548416 0.016134026643334225 0.0021008346174228856 -0.025326531394192789 -0.029169360444708709 0.00040988466589216179 -0.031367328290379297
leaf_weight=269.98165082465857 789.43530163541436 194.18409696780145 241.31293473951519 228.78802732937038 362.76331726275384 343.87316828314215 228.66451326664537 658.60883742570877 149.628064641729 225.70081607624888 373.02320760115981 135.97691206727177 467.4773178640753 244.42769305221736 2466.4706365708262 100.73048370238394 117.96827890723944 172.89719394594431 116.49324757233262 108.67209413647652 211.50304330512881 105.61855862662196 122.76721533387899 106.72947800159454 149.12432762421668 178.21366679295897 530.99303634930402 1321.5248674722388 2282.5199100337923 676.70039889123291
leaf_count=841 1279 764 835 398 788 1126 797 1319 892 696 897 929 897 427 5662 575 493 541 248 283 435 306 257 278 499 554 2188 6117 5799 2882
internal_value=-6.23491e-11 -0.00415271 0.0016879 0.00849835 -0.00411432 0.0112234 -0.00212482 0.0350868 -0.0216213 0.00878987 -0.00462671 -0.0245415 0.0114822 0.00856146 0.0112557 -0.0221843 -0.00287235 -0.00480196 -0.00370155 -0.0144129 0.000344891 -0.0206942 -0.0204113 -0.00917875 -0.0252937 -0.0216275 -0.0183277 -0.0254642 0.00267461 -0.0261783
internal_weight=13682.8 12234.7 9169.06 4218.05 4951.01 3976.74 4756.82 1448.04 3065.67 3747.95 4394.06 2795.69 3404.08 2936.6 2710.9 2646.06 4165.4 3792.37 3674.4 1007.48 2666.92 890.991 2510.08 760.49 1749.59 1648.86 637.723 1499.74 2494.02 782.319
internal_count=40002 37404 24274 10041 14233 9206 13469 2598 13130 8808 12681 12289 7682 6785 6089 11397 11884 10987 10494 3719 6775 3471 10468 2723 7745 7170 2466 6671 6234 3188
cat_boundaries=0 17 35 52 68 86 103 120 137 153 170 187 204 222 240 258 276 292 309 326 344 361
cat_threshold=0 0 0 0 0 1082195985 8388608 0 69632 136716352 5152 150994944 33587200 262144 1573120 10880 2 2 1024 33816576 0 33555464 69208064 16384 2684358656 0 0 134217792 16644 1073742080 32768 134225953 0 2147483648 64 262144 263168 8388608 2147483648 256 134228224 2147483648 2147483908 16785408 512 65536 16384 8192 268435472 8224 4 2181039120 536870912 71303184 0 201326592 536871040 66561 64 1048577 33558528 134217728 8389680 64 32768 67371008 33554440 1187872 134217728 16384 41954304 520 0 1075978384 268436992 32832 0 3221225728 131072 2 67108864 134217728 134217728 1073741824 4194368 64 536870912 0 3758620672 10485761 0 0 56 32770 320 49164 67108864 8 16777220 2147483648 65536 4352 8914944 262144 32768 8388736 0 0 925696 0 46137352 0 256 264192 37758976 12714048 268435456 16781568 1073741824 33554496 4096 2222981120 0 2 562171904 16777216 2097152 128 8192 224 538968064 528392 0 0 8 2148565024 1620050176 0 16384 0 5767168 8388608 1048576 0 135135232 537002019 33619968 384 36864 65536 139264 69206016 17408 69206528 1610612736 2228608 64 33620037 34082848 41216 8 2048 1048832 134217728 570425344 131072 0 16 0 2097152 4260864 0 64 0 8388608 4194336 18874369 1073741842 98320 2098176 67108864 16810001 4 16777216 0 8388608 277159936 0 65538 0 65536 1359480946 8 0 131072 67108864 33558528 16777216 134217728 34 0 1088 0 536887300 131136 1073741824 2228224 64 67176544 36872 335548416 4 1048576 2147483648 0 262144 2 9216 872415232 32768 16384 32 0 131072 32 1073743936 2113536 8388608 67108864 96 135266304 605030400 32768 0 0 1210056834 0 8 4194312 6 18874376 33554560 32 100728832 0 256 2214592512 33622032 13107200 4194304 8388608 136314880 35651584 33554944 1073741824 16 0 34 262152 262144 0 167806976 4194820 0 2197848065 2099200 536870912 134217728 0 2097152 0 304087040 16 16 2147483648 40 67108864 1611137024 16777216 0 2147483664 0 524288 536870946 2147500032 2098176 5767168 16384 1074266112 1245193 16785440 2162688 2 134479880 4194368 134234144 134217797 0 16777216 2214592512 268435456 201326592 0 21039104 2147483648 4718592 8405248 67108864 67239936 0 268500993 16528 2147618816 1049728 742394370 262144 524288 16777216 0 0 4194560 805306368 262144 71303168 8519680 32 532536 11534336 0 33554436 512 0 8388608 526336 16777216 8388672 3221225472 67108992 16384 8388608 0 67125249 131072 1 67141632 16384 0 128 0 0 12288 0 4202496 2155872768 33570816 67633152 2097152 34079744 2952792064 264194 524544
is_linear=0
shrinkage=0.05


Tree=6
num_leaves=31
num_cat=21
split_feature=15 5 0 15 25 0 0 0 0 0 31 9 0 0 0 0 0 17 0 5 0 0 0 4 0 0 13 0 0 0
split_gain=682.781 428.007 127.928 116.143 114.495 119.708 101.6 91.3099 88.5733 86.4227 70.6779 74.4812 190.215 114.259 93.6427 85.1296 69.5636 64.7049 92.6973 60.223 60.1974 57.6463 57.5746 55.2258 111.813 86.7836 52.9863 160.617 109.04 74.9695
threshold=359.50000000000006 4.995000000000001 0 615.50000000000011 2.5500000000000003 1 2 3 4 5 47.750000000000007 6 7 8 9 10 11 141.50000000000003 12 4.5750000000000011 13 14 15 2.5000000000000004 16 17 10.050000000000002 18 19 20
decision_type=2 2 9 2 2 9 9 9 9 9 10 9 9 9 9 9 9 2 9 2 9 9 9 2 9 9 8 9 9 9
left_child=1 6 -3 -2 9 -6 19 -8 -7 -4 11 13 -13 -9 -14 -15 -16 18 -10 -1 -12 -11 -18 -17 -25 -26 27 -20 -28 -30
right_child=3 2 4 -5 5 8 7 10 17 21 20 12 14 15 16 23 22 -19 26 -21 -22 -23 -24 24 25 -27 28 -29 29 -31
leaf_value=-0.0079680358624598224 0.020342631332259938 -0.024347882168454446 0.045601150130235135 0.049646110637922479 -0.036511267736127874 0.026511061477494099 -0.053295610489783589 0.027213667200574072 -0.028851693192398456 -0.018952886180020619 0.038684019696743864 0.036406272181746691 0.012483046466403306 -0.050274048408160035 0.0037754183006272488 0.0018771837863380545 -0.0035299061611550296 0.024829128814466958 0.041186957376408817 0.03684467656819939 -0.04640382942383231 0.013671473576035393 -0.048757283284582419 0.026045119262350563 -0.063610159525455387 -0.016653852320907093 -0.030318444327252947 -0.016866439065439508 0.03112066709243826 0.0038206065728335625
leaf_weight=179.52067797537893 756.16293366998434 396.89455955848098 195.39951482787728 611.6540571115911 197.98422344960272 338.85921755246818 183.51396554009989 180.76243902184069 269.28489891067147 140.09520076774061 17.728128807619214 102.90645200945437 101.00801991671324 137.18214527890086 92.893664108589292 606.88687515165657 91.923707017675042 257.39149437472224 128.31125207804143 128.73480514064431 267.17097468022257 1656.1642400585115 684.94025530572981 131.61751517746598 103.98371700290591 1017.7124781971797 208.46602987125516 876.15879569668323 266.73196005448699 2875.8768602916971
leaf_count=687 1279 1524 330 1319 739 762 1020 498 956 324 40 278 316 655 314 1942 331 551 252 275 1714 3676 3290 395 548 4351 632 3073 538 7393
internal_value=4.93264e-11 -0.00386517 0.00296455 0.0334464 0.00445416 0.000692451 -0.0171019 -0.0193574 0.002169 0.0147117 -0.0174511 -0.0154082 -0.0261689 -0.00993824 -0.0331058 -0.0134193 -0.0384819 0.000428757 -0.000928301 0.0104091 -0.0413801 0.0110362 -0.0435186 -0.0104471 -0.0164982 -0.0215304 0.000862346 -0.00920856 0.00388363 0.00622909
internal_weight=13203.9 11836.1 7807.62 1367.82 7410.72 5419.06 4028.49 3720.23 5221.08 1991.66 3536.72 3251.82 1073.67 2178.15 970.766 1997.38 869.758 4882.22 4624.83 308.255 284.899 1796.26 776.864 1860.2 1253.31 1121.7 4355.54 1004.47 3351.07 3142.61
internal_count=40002 37404 20750 2598 19226 14896 16654 15692 14157 4330 14672 12918 4529 8389 4251 7891 3935 13395 12844 962 1754 4000 3621 7236 5294 4899 11888 3325 8563 7931
cat_boundaries=0 16 34 51 69 86 103 105 121 138 155 173 190 207 224 242 260 277 294 311 328 346
cat_threshold=0 67108864 536887296 10486809 0 0 16 0 256 434240 13312 0 12583168 2147484160 3222798336 4196992 0 0 270336 4194304 167772160 67108864 16778240 67174400 68161536 16384 320 24576 131072 131081 16785408 524288 294912 32 268435488 4 615424 83887240 134217728 720928 0 0 268435456 1073741824 0 2 69206017 2147746304 1073741824 4194306 64 37056 8388672 0 1073741824 768 16777224 134348800 0 8 285212672 2097152 131072 16777216 1073747968 536872448 32768 1745880064 8 4194304 0 16908544 1073741824 295424 16777216 134611200 1109393408 50331648 1024 33554432 131104 526336 4194560 40 276824064 537001984 1140850688 1107296768 0 0 256 335544384 16793600 75500292 540672 0 0 16384 0 131072 8192 32 234881024 1252689093 107 65536 134742016 4128 0 32 4 67175168 71303168 0 0 4194320 159907840 82944 64 33554440 131073 150994944 536920320 8388736 134234144 524288 536871169 2147484673 3 12582912 0 524288 2147483648 545259520 16777216 256 0 512 0 352321568 32768 33619968 272629760 134217730 268443648 0 134217732 1 0 1079246848 32 67108864 16384 0 9 0 1225261088 0 2048 306192384 0 67109120 1073741832 8192 0 16 12583040 0 256 24 268697632 33587201 16 67649536 0 2097664 2415923216 35651584 67108864 524288 1342177280 2147483648 2147483648 0 128 37748736 0 71303184 270532608 35651840 2181038112 1644167426 1073742848 262144 0 526336 0 138412032 524288 67108880 640 0 134217732 1064960 65536 1049856 70254592 0 0 64 0 0 128 0 1024 0 0 16809984 0 0 4195328 0 0 33554432 0 1048576 1179681 1048580 8 0 512 16785408 0 1024 67108864 2148532224 268436000 4194336 32770 16384 64 1 0 1073741826 2048 536870916 1 0 0 524288 67174400 32 269746208 2098240 8390656 33554700 0 0 294912 2 2151825664 128 16777216 16 64 512 1077936128 16777232 16777216 2181038336 8388609 2112 268468232 1179648 8192 16777216 16384 67633667 262144 4194304 0 49184 1048576 1048576 304087040 0 67108868 33554432 2187264 1073741824 33620144 33554432 2097152 262144 188544 0 3244544 0 2147492864 4199424 0 32 0 4194560 16777216 36962304 2684354560 0 0 2162688 512 16384 0 2162816 67174656 2147483648 1024 0 8421472 1208008704 1075839232 2147485696 33554434 537133056 32 0 65538 514 67112964 48 0 542720 64 0 1048642 129 0 128 8388608 0 34304 1216348164 1216 262144 0 4
is_linear=0
shrinkage=0.05


Tree=7
num_leaves=31
num_cat=22
split_feature=5 15 5 0 0 0 20 0 0 0 31 0 0 0 4 0 0 0 0 0 0 0 31 0 20 0 0 9 0 0
split_gain=602.093 380.245 170.855 142.536 127.527 126.075 106.85 145.309 118.786 105.705 79.6114 127.063 88.8082 68.1972 66.6354 160.475 144.028 139.077 101.271 67.0163 66.1663 60.4115 58.1568 62.549 56.6471 54.758 54.6225 61.9219 87.2831 58.842
threshold=5.6150000000000011 589.50000000000011 3.9750000000000005 0 1 2 5.6050000000000013 3 4 5 13.550000000000002 6 7 8 3.5000000000000004 9 10 11 12 13 14 15 56.250000000000007 16 7.4800000000000013 17 18 19 20 21
decision_type=2 2 2 9 9 9 8 9 9 9 10 9 9 9 2 9 9 9 9 9 9 9 10 9 10 9 9 9 9 9
left_child=2 5 4 -4 -1 -2 7 -7 -8 -5 -10 -12 -13 -14 17 -16 -17 -11 -19 -20 -18 -6 23 -21 26 -23 -15 -28 -29 -30
right_child=1 -3 3 9 21 6 8 -9 10 14 11 12 13 24 15 16 20 18 19 22 -22 25 -24 -25 -26 -27 27 28 29 -31
leaf_value=0.017369979982250205 -0.023494376863708984 0.04936392235382072 -0.048080026394314787 0.018871819907061847 0.0052643211719162258 0.037926088908929553 -0.01989168138495459 -0.013948530835038914 0.022813378468479018 -0.049328970260164209 0.046331576067967381 -0.025830766821489798 0.035380054195939759 0.031586568160309351 0.026996043645167389 -0.074504140019865647 -0.051672395621439417 0.032566725384260503 0.023604605821007766 0.023863954019857025 -0.012605730689802168 -7.637610928901599e-05 -0.033473308873896677 -0.0062418702978030748 0.03989727319040913 -0.041898699156277482 0.013246543498190389 0.029723461104422252 0.018402713061774253 -0.014117403146148056
leaf_weight=134.40122529864311 317.0228100605309 573.56126732192934 194.57939827814698 401.36156468605623 94.058355653658509 149.64715870842338 273.89017712138593 875.99076816439629 1545.6300145201385 136.8848221115768 199.29039322957397 196.00667630881071 204.99405559524894 156.28772518783808 200.92319218255579 102.88411940447986 110.23259920068085 217.05744224600494 209.02711424231529 184.75860791839659 1533.0673245447688 96.027762738056481 170.79643515311182 1515.3490541419014 115.96367791853845 865.67115194583312 734.57179176621139 151.0473666973412 153.96590026468039 988.93163716979325
leaf_count=404 1156 1310 940 1058 348 289 869 2512 2790 518 370 661 409 331 520 551 496 493 534 448 6095 369 960 4589 257 5129 1902 319 318 3057
internal_value=-4.93306e-11 0.0104518 -0.0112479 -0.00717814 -0.0282664 0.00677086 0.00846676 -0.00614591 0.0116596 -0.00540213 0.0136171 0.00876439 0.00580037 0.00836748 -0.00766389 -0.0145757 -0.0194026 -0.00216591 0.000855715 -0.00259358 -0.015523 -0.0339193 -0.00563051 -0.00286648 0.00581801 -0.0377664 0.0040358 0.00174881 -0.00482997 -0.00961482
internal_weight=12803.9 6636.8 6167.08 4976.92 1190.16 6063.24 5746.22 1025.64 4720.58 4782.34 4446.69 2901.06 2701.77 2505.76 4380.98 1947.11 1746.18 2433.87 2296.99 2079.93 1643.3 1055.76 1870.9 1700.11 2300.77 961.699 2184.8 2028.52 1293.94 1142.9
internal_count=40002 16550 23452 17202 6250 15240 14084 2801 11283 16262 10414 7624 7254 6593 15204 7662 7142 7542 7024 6531 6591 5846 5997 5037 6184 5498 5927 5596 3694 3375
cat_boundaries=0 18 35 53 70 87 105 121 139 156 173 190 207 224 242 259 277 294 312 329 331 349 366
cat_threshold=2097152 536870912 64 131072 8 2048 1328128 16777216 16777218 32 134217728 142868512 0 1048704 8193 0 102761504 16 16384 4 4194368 196616 2147483648 675282944 17056768 84150274 0 0 16384 1208221696 69632 256 3 25165824 64 134217728 0 537395216 10485761 0 16 1 32768 288 10887168 0 64 41943040 1 1075314690 148096 0 1 4096 4214528 4194336 98304 262657 43008 2147486208 1048592 2 301989888 150994944 17039376 0 0 0 8192 8 268435456 16384 3221225472 4456448 0 69632 0 1048642 268435456 268451848 1073746944 16810000 2147483648 67108864 16777220 8396800 526346 1048576 33554561 17301520 134217744 268435472 65552 1073741825 32768 0 411041792 1140850688 67 33554432 67371009 0 147456 131072 1 553650176 262156 8388672 536870912 524416 262144 1048576 3221225476 16781312 1056 0 0 0 525376 8397344 4 32770 131072 0 1073741824 8389120 1048576 16 0 6 32832 134225921 0 2030043140 17047552 268500992 264192 0 32 16 536870912 196616 16450 65536 6 8448 16785408 2064 67108880 2147483648 16392 2 144 0 33554432 1092616192 272762884 268435456 2182144 0 8192 0 0 1 268500992 16 272629760 131072 524320 131072 16793600 402718720 8196 32 2 256 268503040 1048577 512 512 1074003968 4 1073741824 8192 2147487744 65537 1107312896 805306368 3223322624 9453568 2151680064 285212672 328706 4106 2176 4194304 2048 1 33619968 0 541065280 131072 0 0 16896 65536 16777284 32 2097154 0 0 32 128 0 1342177280 4456448 2048 32 268435456 25444357 41943552 1073741824 3225419808 8388608 687865856 278528 8 301989888 135266304 0 135168 4743170 1048576 1073741825 1318912 0 32768 1094713344 805306368 8192 4194304 32 524288 2097152 1 0 96 1048704 4194304 4096 4194304 3073 262176 1024 512 276836352 1073742848 33554432 2151677953 2147483648 739311616 1 536870912 0 268437504 4263936 64 0 536870912 196608 10485768 201328640 0 75497472 0 4194336 16 0 131072 33554689 1024 8388608 0 545259520 1024 4 2097160 36306944 36864 1078988816 16384 2147483714 67665922 1048576 17302017 16384 1152 67109120 134217728 1152 1048832 40 4194304 256 134217728 0 2621440 0 10240 268501000 2097152 1 1174405120 1208487936 21504 0 1342177280 31457280 4194304 0 134217728 0 276889600 2048 0 537919488 128 0 32 344738180 32 64 8320 128 0 256 33554432 1073742852 268435720 67108864 0 4194304 134742019 67239968 0 1040 672137216 1024 16 2097156 1049616 4 4096 73400320 0 655488 536870912 1 537919616 8 4194340 786944 8388610 0 0 41943104
is_linear=0
shrinkage=0.05


Tree=8
num_leaves=31
num_cat=21
split_feature=5 15 5 0 0 0 0 0 5 0 20 0 0 24 0 0 11 0 0 25 0 0 0 0 9 0 0 0 0 15
split_gain=541.048 327.916 189.553 144.164 97.4461 91.693 84.0458 79.5361 75.2316 89.3932 65.4998 67.5256 62.5703 62.8817 127.889 69.5928 58.7507 109.493 82.7532 52.812 50.633 50.5072 47.9472 45.5148 46.3881 113.987 59.119 50.6707 46.8973 43.4457
threshold=5.8650000000000011 589.50000000000011 4.6350000000000007 0 1 2 3 4 7.3850000000000007 5 4.4850000000000012 6 7 0.095715768419139563 8 9 51.350000000000001 10 11 4.5500000000000007 12 13 14 15 16 17 18 19 20 227.50000000000003
decision_type=2 2 2 9 9 9 9 9 2 9 8 9 9 2 9 9 10 9 9 2 9 9 9 9 9 9 9 9 9 2
left_child=2 4 5 -4 -2 -1 -5 -6 9 -9 -8 -12 -7 15 -15 -14 17 -11 -19 23 -17 -13 -16 -20 27 -26 -27 -25 -28 -23
right_child=1 -3 3 6 7 12 10 8 -10 16 11 21 13 14 22 20 -18 18 19 -21 -22 29 -24 24 25 26 28 -29 -30 -31
leaf_value=0.0092704970673732259 -0.019104076063025617 0.049885965995601189 -0.044720454811640817 0.024648056730786794 0.035871308215072215 -0.058166369832086999 -0.032780087378427455 -0.024247487003972799 0.026760773441034932 -0.03418873837035509 -0.029872924929719793 -0.022144757139351014 0.013509356065639692 0.028717856303183534 0.0079731843648282712 -0.050664347448403972 0.019445273012252177 0.033823176886739435 0.026589294929990848 -0.036760808246576369 -0.017306193836017315 -0.00029192925934609046 -0.058156264630599079 0.038929466666473365 0.034584268514737941 0.017637567693615238 0.0095054381261998992 0.0060965415238734069 -0.021517167501308668 0.016701868843577234
leaf_weight=250.42204506136477 305.7184090744704 512.81980052217841 184.4392829015851 294.08155670575798 264.78917859122157 113.30480694025755 172.46595428790897 225.02002998255193 477.01467719022185 164.6499492097646 184.93824742361903 222.3510022405535 167.89656913094223 56.462045082822442 35.298367987386882 120.08789795171469 816.77599179372191 245.11742396093905 214.838658221066 77.528390001505613 1681.7483772020787 2794.8048218879849 281.97385039832443 128.07127756625414 153.34344404004514 149.17831862345338 146.36926438100636 883.60369768366218 668.321752903983 434.58495225012302
leaf_count=826 1164 1241 790 688 501 769 724 765 1060 611 696 799 578 148 123 684 1551 494 425 277 7898 8961 1765 237 320 324 351 2318 2095 819
internal_value=-1.36445e-11 0.0118372 -0.00919441 -0.00265414 0.00787163 -0.0195529 -0.000652691 0.00967919 0.00800617 0.00571684 -0.00266544 -0.00124461 -0.0224373 -0.02047 -0.0393603 -0.0169898 0.00761084 0.00422338 0.00669845 0.00382463 -0.0197968 0.000374707 -0.0507802 0.00518348 0.00288485 -0.0041275 -0.0105781 0.0105933 -0.0158959 0.0019888
internal_weight=12428 5433.16 6994.86 4287.67 4920.34 2707.19 4103.23 4614.62 4349.83 3872.82 3809.14 3636.68 2456.77 2343.47 373.734 1969.73 3647.8 2831.02 2666.37 2421.25 1801.84 3451.74 317.272 2343.73 2128.89 1117.21 963.869 1011.67 814.691 3229.39
internal_count=40002 13734 26268 13477 12493 12791 12687 11329 10828 9768 11999 11275 11965 11196 2036 9160 9003 7452 6841 6347 8582 10579 1888 6070 5645 3090 2770 2555 2446 9780
cat_boundaries=0 17 34 51 68 85 103 121 138 155 173 190 207 224 241 258 275 277 293 310 327 344
cat_threshold=2097152 524288 8388608 4096 33619968 136323072 269500928 608178176 50331648 67108864 134348800 0 256 268435456 167780384 2097152 2181054464 16778240 16384 1610612736 10485761 16 4194321 16777216 64 4194592 417792 0 0 16777216 0 1572864 8405632 2048 2097154 524548 8388624 0 0 1210056848 1342177792 67141698 16384 1073741824 131072 402653184 67698688 134217728 142606336 1073741824 64 1024 4194432 0 134217728 268435456 1025 16777216 1024 0 134217760 100663328 1073741832 33554432 67108864 72 2148556832 272762880 67108864 1024 33554688 1073774592 67108864 268435712 1064960 2147487744 50331648 512 0 0 2 0 301990944 4 2183169168 8 4263936 2147483648 4718592 270794752 0 40 268697600 576 268500992 1573128 8 0 395265 0 8192 0 1 2 536904712 5242883 1073775104 33792 268697600 1073743104 8 1048576 0 0 134225920 133120 0 16 0 32776 16 0 0 0 6 547360770 20480 2097152 128 12288 134217888 67108864 34082832 0 0 268435464 2147532804 25165824 512 132104 0 131592 1024 67110912 1048576 8 32768 64 0 536871936 1073741825 2148007936 0 131088 128 1073741825 16384 0 16 135331904 8192 13107200 541069312 5242880 2147483650 4194304 2 0 256 259 2097152 32 3 8256 0 0 8 0 16777216 134217732 524288 131074 33554552 4456576 1 2147483776 0 1075904514 536873216 4194304 128 8652800 2293760 33554496 100416 2048 525568 67108864 3221225472 128 33570816 1048576 1074266112 2 512 136380416 8 1048576 3221455872 256 536870912 1 67108864 0 8 557056 64 33554432 603996160 0 536870914 0 131072 3087270272 1 268437504 272 0 67108864 75499520 33554432 3263170560 0 1073741824 0 1052676 1078460482 1048576 67113984 1073741824 2097217 2147500032 32 0 2147483648 32 536871936 262144 0 655360 4194304 134217728 128 268435456 536870912 0 0 2147745824 33816592 0 4458504 16925184 1 8196 805339136 2164736 526336 256 0 2818703360 0 0 0 8 4 1019347232 66 536936448 264 4097 269484032 4203008 536871936 262144 131088 10485760 524288 270534656 0 265280 4194304 4225 16777216 0 553648192 0 0 33554432 1073872896 33554432 1056770 1048576 2215641088 67174432 4 134250496 134217728 262144 272896000 536936448 2146304 148 64 536871042 1572864 262178 0 16777217 0 1024 4096 0 67108864 16777232 8388608 0 1073741826 1073872896 1342177792 134217728 4096 2147483648 8 10242 640 262144 0 3774881792 100663296 536870912 1342177280 8196 2181562368 262144
is_linear=0
shrinkage=0.05


Tree=9
num_leaves=31
num_cat=22
split_feature=5 15 5 0 0 0 13 0 0 0 0 0 0 5 0 0 0 0 20 0 0 0 0 0 0 20 0 0 4 0
split_gain=497.031 307.706 136.105 123.694 107.061 84.2145 76.3723 93.7653 86.9402 82.3421 75.9529 57.4052 56.4602 56.2643 83.4368 58.2969 52.9341 47.2581 46.1982 85.6631 83.3203 45.947 41.13 46.0731 39.6561 38.0419 65.2905 51.3342 39.1639 101.17
threshold=5.6350000000000007 589.50000000000011 4.2550000000000008 0 1 2 21.350000000000005 3 4 5 6 7 8 6.6050000000000013 9 10 11 12 4.4600000000000009 13 14 15 16 17 18 4.5050000000000008 19 20 2.5000000000000004 21
decision_type=2 2 2 9 9 9 10 9 9 9 9 9 9 2 9 9 9 9 10 9 9 9 9 9 9 8 9 9 2 9
left_child=2 5 4 -4 -1 -2 7 -7 -8 -9 -5 -6 -11 14 -14 -16 -10 -17 19 -13 -20 -12 -21 -24 -25 26 -23 -27 -29 -30
right_child=1 -3 3 10 11 6 8 9 16 12 21 18 13 -15 15 17 -18 -19 20 22 -22 25 23 24 -26 27 -28 28 29 -31
leaf_value=0.016848346622176536 -0.017217805763384341 0.047205113617549754 -0.046626916421867975 0.019326491292399734 0.004333674063985298 -0.03391617844360377 -0.014415161789123825 0.032860436125682256 0.047507577677751552 -0.021776198057646204 -0.029024451271013624 0.011182024173934607 0.031458696748453654 0.01608998376283019 0.022760692385335308 -0.032682654148759149 0.016813038911915674 -0.0030744801346668004 0.033942062192335268 8.3706878855739121e-05 -0.024773848726311685 0.04650499285281412 -0.0060968210530793557 -0.012948568246780288 -0.051234581881759736 -0.026338389801246215 -0.027208815031373276 0.0060276789665491114 -0.0481628521107198 -0.0023586740821144405
leaf_weight=157.20554302539676 340.85277407523245 507.8862882219255 165.21140250936151 320.41913072764874 145.84293778892606 148.2813557125628 202.71749522164464 244.3732573762536 154.86458714678884 201.00516432896256 190.70855869166553 94.649477541446686 188.04327163100243 823.48384369164705 191.45023844018579 138.65113775804639 1524.8330658841878 1523.8434099536389 65.861440362408757 71.485404271632433 316.74805792560801 25.176346722990274 94.985731184482574 102.94274797663093 679.47769196471199 205.16590076684952 295.10786708351225 1185.6984855756164 119.98366354219615 1710.6085806200281
leaf_count=519 1341 1309 872 844 526 694 505 525 236 737 857 336 400 2002 432 444 3174 4564 154 331 1677 49 448 518 4436 831 1326 3267 529 6119
internal_value=-6.54776e-11 0.00991744 -0.0103227 -0.00547969 -0.0221363 0.00658471 0.00812062 0.00372542 0.0162404 0.00549709 -0.00367824 -0.0259768 0.00321673 0.00503955 0.000607861 -0.00267655 0.0199074 -0.00572443 -0.0290851 -0.0347381 -0.014427 -0.00569949 -0.0390251 -0.0421764 -0.0464243 -0.00436535 -0.020812 -0.00274374 -0.00104806 -0.00563683
internal_weight=12137.6 6190.29 5947.28 4218.08 1729.2 5682.4 5341.55 3459.13 1882.42 3310.85 4052.87 1571.99 3066.48 2865.47 2041.99 1853.94 1679.7 1662.49 1426.15 1043.54 382.609 3732.45 948.892 877.406 782.42 3541.74 320.284 3221.46 3016.29 1830.59
internal_count=40002 16363 23639 14694 8945 15054 13713 9798 3915 9104 13822 8426 8579 7842 5840 5440 3410 5008 7900 6069 1831 12978 5733 5402 4954 12121 1375 10746 9915 6648
cat_boundaries=0 18 33 50 67 83 100 118 134 151 168 186 204 221 237 255 273 289 306 324 341 358 375
cat_threshold=2359296 524296 4096 65536 100663305 2048 1327360 0 2 1073742880 16384 32 0 8320 67109153 2097152 1024 4 268566528 134742017 37072 131072 2181087240 128 275712 262144 0 1073743104 1327120 0 0 0 288 0 0 3758620688 10485761 134217744 16 0 0 288 417792 1073742848 64 41943040 1 1075314688 17024 2048 64 268435456 0 67633160 0 2097152 0 16384 67108992 76 263040 0 268439552 2048 2293760 536873216 65536 0 51456 72 5505024 65536 0 1140850936 0 1088 98304 301989888 524288 67108864 16777216 4456576 1024 1075838976 12589056 64 1610743808 384 1081600 8448 0 0 256 0 1441792 67108864 134217872 4194336 65540 2097152 4195328 128 16777216 134218768 0 134218768 1610612736 402653185 0 268435456 1140850688 65 100663296 9 1073741824 201343008 2048 2 524290 8 18432 65536 134217792 4196352 4194304 16779264 0 2150107136 131072 2050 0 2298544128 67108865 1082195968 8389120 117440514 0 2151940128 0 0 266244 268959748 4227588 0 6144 32768 0 0 8652802 285741056 16 0 524288 33554464 0 67440640 0 0 257 22545 1024 2281701377 134217728 0 16842754 100663304 33554432 1073741826 266496 1207959684 2232320 0 2152726560 2151677954 134217728 2048 3932160 0 0 2147483656 1073774592 1073741824 8192 2097152 0 4 0 285212682 8388608 2147483648 8 16777216 5505024 4096 33554434 33554432 0 75498528 0 2099200 1024 16777216 99328 4 50331680 0 0 4 2105344 570425376 805339136 139460608 8192 553648128 830480384 1107296512 0 4194304 64 0 134217728 67108865 603996164 8388608 16392 4194320 0 268961792 1610612736 134234112 0 402653184 4456448 8458240 256 0 2097152 2097152 32768 0 0 0 131072 0 98400 16777216 159383552 4 167772160 33554432 128 2050 0 64 33 67108864 0 32896 536870914 4096 0 4719616 266240 8390672 524288 134217744 4194304 134348800 65536 12816 0 2097184 16 2147500032 0 0 2147483648 268436000 536871968 16777216 71303170 8388608 4194304 41943040 67239936 2560 131073 33570816 1 2304 4325696 0 128 0 0 67108864 2098176 2048 2 32768 8388872 134217728 8388608 138412548 553648136 413696 25494016 16 0 268439552 6 268435520 0 2148012032 4194304 536870920 2097186 1612742656 256 67371008 8192 16 8 64 0 268435456 544 0 65536 0 100663296 0 0 0 0 0 32 0 0 0 8 0 545292288 1049120 2147489792 165888 1310722 234881024 1073741824 16777216 33554688 0 537002240 0 0 33554432 1073807360 67125250 545259520 1 0 0 524384 1073741824 4608 33554432 67125248 8388608 2097152 4096 4737 2147502336 536870912 2147483648 1
is_linear=0
shrinkage=0.05


Tree=10
num_leaves=31
num_cat=22
split_feature=5 15 25 0 5 0 0 13 0 0 0 0 0 0 12 0 0 0 20 0 0 0 31 0 0 0 0 0 0 0
split_gain=443.821 319.774 95.9057 100.264 89.3112 108.846 82.0596 72.6272 138.436 119.42 87.0232 86.5462 68.1389 65.3943 71.2318 60.014 57.1384 49.3276 48.4939 99.1449 92.7095 70.9976 48.4009 121.726 77.3336 57.4674 50.013 47.417 45.5775 42.3278
threshold=5.0950000000000006 589.50000000000011 2.291666666666667 0 3.4050000000000007 1 2 15.950000000000001 3 4 5 6 7 8 57.650000000000013 9 10 11 4.8750000000000009 12 13 14 21.850000000000005 15 16 17 18 19 20 21
decision_type=2 2 2 9 2 9 9 10 9 9 9 9 9 9 8 9 9 9 10 9 9 9 10 9 9 9 9 9 9 9
left_child=4 2 13 -4 5 -1 -6 8 -5 -9 -10 -11 -8 -2 -15 -12 -7 -17 20 -20 -14 -22 26 -24 -25 -26 -19 -27 -21 -23
right_child=1 -3 3 7 6 16 12 9 10 11 15 -13 18 14 -16 17 -18 22 19 28 21 29 23 24 25 27 -28 -29 -30 -31
leaf_value=0.02084230831681479 0.042963401903985954 0.04525089294983313 -0.029401150758511727 -0.050206164503077723 0.013767371984218794 0.0073885543523212714 -0.049355195020570793 -0.030562744936078301 0.029839332730705465 0.044404631115307867 -0.034162646137107497 0.0087468585249861376 -0.057974925066339611 -0.0054435372842945862 0.019505368213245122 0.020458016981664162 -0.059865511899903037 0.034068771441686352 0.03787438471573025 0.023837505807366918 0.015648668963060771 0.0052111189985153024 0.031669070801807697 0.019628802458353706 0.01117227326353252 0.0035847941122221041 0.00063491245060965729 -0.030034749412748942 -0.013447499134545066 -0.018603533032632322
leaf_weight=64.422869317233562 182.53913865238428 507.32945967651904 243.81318708602339 135.82748936861753 293.38846574816853 41.405101582407951 120.26704931911081 172.77355293557048 211.69813826680183 175.70031811483204 134.11581311002374 2359.8950579576194 115.69156399089843 423.86494456231594 880.20640559308231 232.81047425419092 242.52200220339 119.14811194315553 122.66125299781561 84.783968972042203 186.96287530381233 209.42352336831391 147.42521774582565 131.9188853027299 124.17063513956964 127.72082645911723 851.36334988940507 723.31855802796781 665.6723188040778 1803.5514990868978
leaf_count=194 327 1367 919 638 959 157 735 508 505 320 547 5906 772 1190 1917 618 1949 233 275 231 620 765 385 380 372 433 2362 3300 2536 8582
internal_value=-2.92162e-11 0.00685308 0.00421286 0.00134939 -0.0136786 -0.0378539 -0.0113409 0.0027241 -0.00271351 0.00863584 -0.000232777 0.0113824 -0.0135677 0.0155613 0.0113095 -0.00279412 -0.0501402 -0.000950984 -0.0120679 -0.00206413 -0.0158919 -0.0133546 -0.00327254 -0.0097733 -0.0154384 -0.0203331 0.00509711 -0.0250062 -0.0089771 -0.0161124
internal_weight=11836.4 7885.64 7378.31 5891.7 3950.75 348.35 3602.4 5647.89 2939.52 2708.37 2803.69 2535.6 3309.01 1486.61 1304.07 2591.99 283.927 2457.88 3188.75 873.118 2315.63 2199.94 2225.07 1254.55 1107.13 975.21 970.511 851.039 750.456 2012.98
internal_count=40002 22227 20860 17426 17775 2300 15475 16507 9773 6734 9135 6226 14516 3434 3107 8630 2106 8083 13781 3042 10739 9967 7465 4870 4485 4105 2595 3733 2767 9347
cat_boundaries=0 18 34 52 69 87 104 122 139 156 173 190 207 224 242 260 278 296 313 330 347 364 380
cat_threshold=2415919104 16384 0 8520721 16 1048705 1090519040 0 67108864 2179072 256 134217730 0 0 4 4850688 138674176 32 18874880 2097664 0 0 16392 128 512 67584 16842752 2147483648 0 8651816 1746927624 301990016 1024 67108872 32 260 65536 134235152 0 1 1073742850 268435456 277872640 16 33554432 134217728 67108881 2147484160 1073741826 2 4194400 32 544 1073741828 0 35684352 524288 33554464 33554432 0 4 268566528 8704 67110144 398356 131072 0 536877184 268435456 131072 541065472 2147614752 32 3145728 0 8192 64 8388704 294928 16777280 16 69206048 17039488 0 6 768 2 131072 2097152 131088 1073741824 270565888 16777216 67248128 9961473 1074003968 384 0 1048576 32 128 1 33619976 4864 8389120 512 0 2048 131072 33554432 33554432 0 131072 1026 3145728 67109120 1710080 0 1024 268697600 101376 17 4160 0 0 1342179328 2 33816584 134348800 0 16842760 2 67108864 40 1073741834 1342181504 0 8388608 1 1074790464 16384 0 33587712 16400 68157440 16793600 67109376 4096 2097696 67108872 17922 4 0 4 537001984 134479872 536870976 2147483648 8462336 289409024 131072 0 0 83886102 4194304 32 13369344 0 4194304 16384 570425344 262144 2147516416 2147500032 1024 0 0 0 0 0 1207992352 0 3 0 2099200 268500992 0 33570816 41943060 2147485696 8192 5251072 525320 0 2148597760 2147483648 134217760 268468224 1 0 16777219 32896 134217736 524288 83886080 10485760 131080 268435464 134217728 33554497 160 16384 589856 268500992 1 0 4864 32 2097154 2147483648 8388612 4096 4210688 269221892 3229614088 16777216 33554689 160 8404992 2147483648 16384 1064961 4096 640 65536 0 65664 4194304 4112 294928 524288 8 589840 537399296 17301504 33685504 2147483648 4 256 2050 134234112 1074266112 2168455168 65536 8388640 72 134225920 0 0 64 595984 65552 4456448 536870912 1024 274504 4211712 128 16 33557504 0 0 67108864 201334784 64 0 8192 2 0 268566784 2147485696 0 129 12582912 256 1024 8388610 1744830464 2064 8519680 2 1082130432 1073741968 67108864 2099200 8 0 33554432 512 192 545259522 2050 8388608 2097152 1049120 262144 402653184 16 1082163200 2147483648 32 2 536870917 0 4096 2129988 4352 0 1024 65536 4096 2695168 4194816 536870912 2149842944 0 1376256 268435456 1 67108864 25165824 536873024 0 65536 1140850688 536887568 269517316 1073872928 2147483712 16818176 0 1 33570816 2101248 0 268435456 1073741824 0 2151677954 17936 16777216 0 0 2684354560 16 0 2684354688 3 1048576 0 395265 37748736 131072 143654912 134218752 1073741952 8390656 0 96 540147714 2048 0 131076 4196352 8527872 16777280 4199424 134217728 2048 1075839012
is_linear=0
shrinkage=0.05


Tree=11
num_leaves=31
num_cat=22
split_feature=5 15 5 0 0 0 0 0 0 25 0 0 0 0 0 9 0 0 0 5 0 0 0 30 31 0 0 6 0 0
split_gain=407.952 243.921 133.565 92.3455 84.8693 79.7525 65.8018 61.0517 58.3232 54.7404 94.7098 92.348 81.3031 65.4594 51.4117 50.8733 102.402 76.2339 56.6515 50.5299 81.4552 45.659 45.4859 42.0957 42.0687 79.8405 39.3648 37.079 104.484 83.7785
threshold=5.8650000000000011 589.50000000000011 4.0150000000000006 0 1 2 3 4 5 3.291666666666667 6 7 8 9 10 11 12 13 14 7.3850000000000007 15 16 17 0.047445055859493608 17.850000000000005 18 19 34.515000000000008 20 21
decision_type=2 2 2 9 9 9 9 9 9 2 9 9 9 9 9 9 9 9 9 2 9 9 9 10 10 9 9 2 9 9
left_child=2 5 3 -1 -4 -2 -6 -7 -5 11 -11 -8 -13 -12 -14 16 -15 23 -19 20 -9 -10 -22 -17 -16 -26 -27 28 -24 -29
right_child=1 -3 4 8 6 7 9 19 21 10 13 12 14 15 24 17 -18 18 -20 -21 22 -23 27 -25 25 26 -28 29 -30 -31
leaf_value=0.017529971374057519 -0.019277729718208229 0.046365708984542904 -0.034751446908976774 0.0088507012050623359 0.015488171862734915 0.032453402864908928 0.037267888972411532 -0.02456902568947792 0.0013835903509693355 -0.044322001506481863 0.016241264501321146 -0.039503868904493214 0.028205898917684637 0.019284490777896377 0.008771977638704154 -0.05176166143688167 -0.03515875154416518 0.02001666973937391 -0.0060218883176522608 0.02290618437114399 0.02927889470128103 -0.036183991869821693 0.038397274159056298 0.016662759090995627 0.027801681068507007 0.0074004698800667875 -0.03106374177665229 0.043779160501272771 -0.0035849307748259383 0.007009456699343589
leaf_weight=119.097566251643 257.65128591004759 438.03253757674247 218.73113329522312 96.56003151461482 406.49107959866524 251.27820770256221 163.49818049184978 204.21409638412297 97.843038789927959 167.14030613098294 276.62887482345104 117.64331465726718 157.15068126469851 106.22405523248017 464.05284469947219 134.87258936278522 389.85991447325796 222.50944053381681 2080.4611912397668 466.06381667032838 211.03396989032626 835.20209815166891 154.32971248589456 26.973272675648332 91.727318185381591 86.639371294528246 292.69619229994714 166.80032858811319 1500.6490709716454 1374.9171934593469
leaf_count=362 1001 1241 1100 352 1153 522 399 800 403 734 824 512 463 275 1292 612 1755 651 7578 1138 456 5552 328 71 291 313 1576 327 4205 3716
internal_value=-3.6789e-12 0.0107176 -0.00821972 -0.0237027 -0.00492815 0.00731336 -0.00359597 0.00891982 -0.028367 -0.00524849 -0.00865855 0.00316679 -0.00173506 -0.00665992 0.00265434 -0.00884698 -0.0233504 -0.00584538 -0.00343042 0.00739389 0.00541274 -0.0322716 0.00726024 -0.0380095 -0.00189273 -0.0124389 -0.0223142 0.00571988 0.000540334 0.011317
internal_weight=11577 5024.97 6552 1148.7 5403.3 4586.94 5184.57 4329.29 1029.61 4778.08 3404.67 1373.41 1209.91 3237.53 1092.27 2960.9 496.084 2464.82 2302.97 4078.01 3611.94 933.045 3407.73 161.846 935.116 471.063 379.336 3196.7 1654.98 1541.72
internal_count=40002 13734 26268 6669 19599 12493 18499 11492 6307 17346 12500 4846 4447 11766 3935 10942 2030 8912 8229 10970 9832 5955 9032 683 3472 2180 1889 8576 4533 4043
cat_boundaries=0 18 36 52 69 87 104 121 139 156 173 190 192 209 225 242 260 278 296 313 330 346 364
cat_threshold=2147483649 0 4194368 2147483648 2147483648 536871040 263168 17039360 0 1073741824 16384 1216610304 33554432 2147483904 67109120 25165824 64 32 2147483649 1024 4194564 32770 0 0 1065984 2166360072 16777216 16777216 134234112 262144 134220032 1048576 4096 0 2181070864 16 25166848 16384 536870912 8388609 402653216 4259857 0 64 4194560 401408 0 8 4 16777216 1572864 8413824 25165824 4194433 0 0 268435488 65537 0 268436545 0 0 2248146945 10 16777236 218103809 8 24608 131072 67108864 16778240 33554692 32770 0 256 2147500032 2147489792 50331648 512 0 0 2 536870912 1056 4 2248180880 16 0 672220160 32769 537001992 0 4195328 4259840 67110978 0 134217728 402653204 0 6144 1048576 0 270532608 32 64 2179072 16 2214592512 0 2158004224 1073741824 16 0 2101248 1050624 67125248 1048577 2147532928 0 9 69206016 1024 81920 512 134217728 80 2149580800 1090519040 16 269025280 136318976 282099712 0 262145 512 0 0 0 1 256 536870912 57344 1024 1627389952 268960000 2281701376 536870912 0 1026 0 559104 4096 528640 268435462 32768 1248 2312 270336 12320 33555472 1610874880 16 134217728 0 0 0 537395232 34880 0 12582912 2 2281766912 589824 0 33554688 8389648 67108864 134217728 67144740 0 532480 4194304 1048576 0 1 42991744 16384 553648128 4194305 4198404 2785181998 20 0 0 16779776 81920 150995072 134217728 100352 134217728 8388608 34078720 16777216 0 807403522 1024 16640 1073741842 4202624 335806976 524288 0 196608 65600 4 67584 0 65536 1048576 16777216 1107296256 538968194 537003008 671088640 23068672 7995424 0 2621440 0 0 1073741824 75632640 1073741826 7602176 0 0 5242880 0 798720 32768 8388608 805308416 8 4259840 3489660928 2154299392 2359296 0 8 268697600 608 33619968 524552 0 0 10240 0 0 524288 1 150995968 32772 0 288 134217728 8388608 16793600 1146880 1083392 2147484738 65536 0 671678465 128 134217729 0 0 16 33558528 0 8388736 0 67731460 134250496 0 16777472 8192 256 136331264 67108864 0 268435456 268435968 268435456 3407936 32 268435520 3221229568 0 0 0 131082 33554432 0 1140867072 268436000 64 48 131104 34816 0 554827776 536871168 67141632 0 34078720 268435456 512 34603008 1 1073775104 0 41943056 0 35668096 536903688 33554568 1073741824 67108864 262144 640 131072 65600 4 33554624 1074266628 276824066 34603008 1073741824 0 64 268435456 268437760 1074266112 33554496 2147483648 1075839232 536872968 393216 512 1 100673568 1077936132 69337088 4100 128 0 134217728 0 134217728 4194304 0 81920 4
is_linear=0
shrinkage=0.05


Tree=12
num_leaves=31
num_cat=22
split_feature=5 15 5 0 0 0 0 0 13 0 0 0 0 20 0 0 11 0 0 0 0 0 31 0 0 0 0 0 7 0
split_gain=367.789 232.08 106.844 85.9639 78.4907 70.0509 63.0561 58.2015 54.1906 103.526 78.2407 74.6142 48.0892 52.4895 94.0923 83.423 64.2841 69.839 64.0638 42.4272 42.3918 41.2119 41.782 84.7306 64.3398 56.7894 40.4813 39.0925 36.6662 111.995
threshold=5.6750000000000007 589.50000000000011 4.535000000000001 0 1 2 3 4 9.4500000000000011 5 6 7 8 5.6950000000000012 9 10 54.550000000000004 11 12 13 14 15 17.450000000000003 16 17 18 19 20 28.315000000000001 21
decision_type=2 2 2 9 9 9 9 9 10 9 9 9 9 8 9 9 10 9 9 9 9 9 10 9 9 9 9 9 2 9
left_child=2 6 4 -4 -1 -5 -2 -6 10 -10 -9 -12 -8 14 -14 -15 17 -16 -17 -20 -7 -13 24 -24 -23 -25 -27 -26 29 -22
right_child=1 -3 3 5 7 20 12 8 9 -11 11 21 13 15 16 18 -18 -19 19 -21 28 22 23 25 27 26 -28 -29 -30 -31
leaf_value=0.011033552747666675 -0.016435861610047404 0.044067377522550494 -0.043088263831543107 0.0224085143596723 -0.060529998505607863 -0.028677844554336342 0.026657092244533165 0.014091884361927222 0.039312022082758719 -0.015160687117228486 -0.070585743031397002 0.0047320086437427668 0.032647696660602209 -0.021157731757026059 0.022335119226777323 0.03640709335204928 0.014210580413825459 -0.023133833853517617 -0.0088694822160361262 0.010873655174650009 0.030768047300231523 0.02044128700687825 0.017888154943549769 0.0036850007459002933 0.0071025819641904733 -0.0070624519656259047 -0.062348097500908167 -0.031561569656616585 0.00052935385695950161 -0.021237354684362133
leaf_weight=216.75992722995579 284.7740790611133 436.23504943493754 121.65838624536991 263.05634892173111 81.072391391731799 155.28834996558726 297.19718564674258 120.74297038652003 95.59870259091258 499.0849055047147 90.188305134885013 117.09392805490643 143.54538790509105 207.50591726601124 91.680571001023054 222.34247991815209 213.74501303583384 603.08975299913436 295.61502488516271 2867.9984613526613 116.69826142117381 86.418631324544549 58.38550659455359 55.478053782600909 79.980350572615862 53.436919306404889 288.35552458558232 401.05748008098453 2225.0874545169063 591.50019039772451
leaf_count=745 1174 1303 653 666 650 712 670 465 214 2436 672 474 286 704 207 459 399 2246 1034 7461 314 278 255 281 279 300 2499 2253 7599 2314
internal_value=-8.00788e-12 0.00903059 -0.00894653 -0.00345275 -0.0174512 -0.00187989 0.00610677 -0.0204509 -0.0184801 -0.00599777 -0.0241108 -0.0277488 0.00742379 0.00613873 -0.00367063 0.0090277 -0.00966193 -0.0171453 0.0109079 0.00900668 -0.00401419 -0.0237762 -0.0270532 -0.0385935 -0.0182633 -0.0461822 -0.054151 -0.0251193 -0.0026155 -0.0125332
internal_weight=11380.7 5663.73 5716.94 3473.29 2243.65 3351.63 5227.49 2026.89 1945.82 594.684 1351.14 1230.39 4942.72 4645.52 1052.06 3593.46 908.515 694.77 3385.96 3163.61 3088.57 1140.21 1023.11 455.656 567.456 397.27 341.792 481.038 2933.29 708.198
internal_count=40002 15943 24059 12258 11801 11605 14640 11056 10406 2650 7756 7291 13466 12796 3138 9658 2852 2453 8954 8495 10939 6619 6145 3335 2810 3080 2799 2532 10227 2628
cat_boundaries=0 18 35 52 68 85 103 120 138 156 173 191 208 225 243 260 278 295 313 331 348 365 382
cat_threshold=2105344 0 1 536870912 100663368 201329152 5783552 8388608 0 1073741824 0 4194304 131456 0 201326592 0 1024 16 0 33554565 35857 0 134217744 671228048 336069632 536870914 0 3225419776 0 134217728 67108864 0 134217728 1073741824 64 4195328 67198976 8 134217728 0 525312 1 558080 0 0 336068640 100696128 33554448 1 0 2151694368 4325376 268436480 81921 537395216 10485761 32 16 0 32768 288 2498560 67108864 0 8388608 67108865 1075314688 17024 4194320 4096 0 33558530 2101248 819200 134217728 131072 0 67108864 2621440 524804 0 0 805306376 49154 12582912 153092096 134217728 33554496 65568 65536 0 2147483648 100665408 13107200 0 8519680 2097152 2097152 33554944 1107296258 16 0 34 16384 805371904 16777216 8 40 67110912 0 8224 16384 2101256 5308416 8388610 1342177280 65536 8192 2162688 32 134221824 0 64 134250496 66304 256 2164260865 2099200 536870912 402653696 8388608 2105352 4112 301989890 2 16 33554432 40 67123200 512 0 536903682 256 268468746 5259264 4096 0 67108864 0 32 131074 0 1024 33554436 83887360 20 65666 4325376 4194848 65536 262144 12288 5632 19 2 2415919104 2298478592 262160 2147483648 0 0 8192 9 65536 131072 0 0 0 65536 1 2 268435456 2952806400 134231040 32784 2164260868 0 16777282 13312 526338 1 0 3408 2097152 1073741840 536870977 2304 2147491840 1075839072 8 16777344 0 0 0 0 0 0 2 512 8194 2 4096 67633152 0 805306368 2282029056 16779264 32 16384 133256 8192 805306500 32 0 33554448 8388610 256 3221225472 5507072 0 1048576 1536 0 578 33589248 16777729 1048576 536870913 4096 360452 12582912 0 32 33554433 16777224 36864 0 1025 8396808 268698368 33554432 2048 4194304 0 0 2162690 1048608 8193 1073741824 16416 268435456 2785280 8388640 132096 67110976 4194816 4352 0 2048 537396224 134479872 0 545259776 1179656 0 0 0 16 8448 1088 128 0 2147483776 8 1074003968 67109376 134348800 0 32772 33947648 0 0 19488 131072 536871424 1073741824 134234624 2097408 268435456 33792 2097152 4194304 1073775616 0 0 131072 352 32776 2147483904 512 276824076 0 64 16777216 1077936128 4194304 2147483920 0 268435456 131072 0 65536 16779270 268435456 67109888 33554432 150995008 1 2281701376 16392 1 8388608 16 16384 0 0 1048640 8192 17105152 269484032 8388608 3 5242880 138477568 537657380 0 0 67633408 2217345537 67108872 33562624 0 1048577 8389632 0 402915328 0 33554497 0 2048 2050 0 83886336 83886080 20608 0 0 65542 0 28672 0 738197506 1 0 0 151027728 2 4 49156 2 139280 402654084
is_linear=0
shrinkage=0.05


Tree=13
num_leaves=31
num_cat=22
split_feature=5 15 5 0 0 13 0 0 0 0 0 0 0 0 0 0 0 0 5 0 0 0 9 4 0 0 0 0 8 31
split_gain=334.85 233.985 69.9427 110.166 90.0421 67.8541 125.171 96.199 83.8474 77.7834 69.197 67.1879 64.0825 60.3937 53.7678 43.4493 42.4463 42.0581 42.933 105.5 60.5374 54.6607 43.4994 41.8786 107.442 68.6486 45.5728 37.4914 36.5895 36.4632
threshold=5.1150000000000011 589.50000000000011 3.7850000000000006 0 1 10.250000000000002 2 3 4 5 6 7 8 9 10 11 12 13 6.7150000000000007 14 15 16 17 1.5000000000000002 18 19 20 21 48.500000000000007 63.150000000000013
decision_type=2 2 2 9 9 8 9 9 9 9 9 9 9 9 9 9 9 9 2 9 9 9 9 2 9 9 9 9 2 10
left_child=2 5 3 -1 -4 6 -2 -8 -9 -7 -10 -6 -11 -5 -12 -15 -16 -14 19 -19 -20 22 -21 28 -25 -26 -27 -13 -23 -29
right_child=1 -3 4 13 11 9 7 8 10 12 14 27 17 15 16 -17 -18 18 20 21 -22 23 -24 24 25 26 -28 29 -30 -31
leaf_value=0.025920597881668034 0.041814026459712147 0.041534234611393946 -0.048374544709570831 0.0085524759561205078 0.016673467110161235 -0.021007536635493179 0.033408324685519596 0.026580077844240074 0.018818744159854954 0.028600306315480547 0.011468467595665374 -0.032843803456336536 -0.012218143996730482 0.0018629811043184693 0.0048162758083557531 -0.043804450592017062 -0.031947965632727601 -0.029994009777191369 -0.0086312524699530112 -0.00073749289592699662 0.020861598447969476 -0.035543294084740655 0.040497248259698186 -0.039668590685248632 0.029242672081721467 -0.022930711219501569 0.003388985185665687 -0.0067096276031312005 0.016878926114818636 -0.043036711911071147
leaf_weight=86.185734086669981 114.75365813728422 440.82885375712067 127.44781848788261 79.766650910489261 267.52366952365264 238.78234264068305 103.58616923168302 102.16130207292736 101.50920073129237 333.72360325790942 95.939422555267811 150.64629115583375 284.2644437327981 66.204185319133103 92.247933520004153 502.39325940981507 741.94422162044793 198.02546115405858 210.36873446777463 101.68832161650062 958.94604473374784 34.813184097409248 196.22896686382592 140.10839223116636 231.0244246032089 171.7923194412142 1718.4740836508572 2442.8954890663736 758.92737198062241 71.087219557724893
leaf_count=259 263 1364 788 325 830 790 263 284 313 818 313 828 918 303 291 3794 3391 691 712 272 2292 83 420 523 585 565 5297 10340 1538 549
internal_value=1.18759e-12 0.00621297 -0.0120687 -0.0259237 -0.00874239 0.0039659 -0.00608278 -0.0107755 -0.015069 0.00640212 -0.019409 -0.00683147 0.00765315 -0.0327105 -0.0237368 -0.0385469 -0.0278736 0.0062021 0.00733486 0.00461411 0.0156602 0.00672739 0.0268557 0.00468339 0.00123055 0.00409956 0.0008889 -0.00924484 0.0145797 -0.00770619
internal_weight=11164.3 7370.14 3794.15 734.55 3059.6 6929.31 1352.14 1237.39 1133.8 5577.17 1031.64 2932.15 5338.39 648.364 930.132 568.597 834.192 5004.66 4720.4 3551.08 1169.31 3353.06 297.917 3055.14 2261.4 2121.29 1890.27 2664.63 793.741 2513.98
internal_count=40002 21986 18016 4681 13335 20622 5118 4855 4592 15504 4308 12547 14714 4422 3995 4097 3682 13896 12978 9974 3004 9283 692 8591 6970 6447 5862 11717 1621 10889
cat_boundaries=0 16 33 50 67 84 101 119 137 154 172 190 206 224 240 254 270 288 290 307 325 343 361
cat_threshold=2164261376 134217732 32768 32 8 536870912 4457472 67141640 0 2684355584 0 8388608 136314880 65544 75497474 1090519040 4672 72 0 2048 0 0 5526528 2129920 8 1049600 16400 75530256 256 69760 67108864 536870912 8192 1078067200 0 2097152 0 6332420 269553664 947914752 0 524288 256 16777216 10485760 0 128 0 2147549184 768 1152 0 65540 1140850944 2147745800 20971520 0 0 1073741824 273678336 134219776 278530 1572864 268435456 32 268435456 2228226 40960 8192 1049216 131264 9438208 134480904 0 536904202 32768 4128 0 4096 262144 524288 0 2228224 67110912 4325504 0 2148597760 1041 0 65536 8388608 0 134217728 266496 2048 3145728 10485760 0 2147483650 196610 546 1064960 589824 1024 536870914 268435456 2112 135168 67108864 266241 1074003968 1073741832 34078720 72 1048592 64 33554432 270336 2 65536 256 66048 134430736 134217760 131089 256 0 403701760 1073741840 0 1048576 67108881 2147484160 2147483648 131074 64 32 67112960 576 0 2147486208 67109120 33554432 1064960 0 16777226 524290 2097152 67272704 40960 8388610 0 545259552 134251521 1074266112 17928 64 150994944 16384 4096 16781312 536870976 268437504 138412288 16384 2097160 4104 128 4194320 0 4196384 64 2048 33685504 2416443392 1 512 67125248 0 2148007969 512 0 66 1048584 2684354560 263168 809500672 525314 1073758208 64 341837056 67108896 8 536870912 2147483648 4194304 1114112 65536 0 0 229376 262176 1073758208 262144 134219776 603979792 65600 64 34880 65536 33619968 1073872896 0 4096 2147500032 9220 536870912 1073742337 8388608 67108896 67112976 67117056 536870912 1 1024 2097152 2621440 8585344 1032 1052672 939591680 536870912 1073742336 139264 1024 2181038082 1 512 1073741824 2622464 16388 262144 0 6553600 2121728 268568576 1073774592 2147876872 100 1073741841 33554824 540672 64 536870912 32768 12288 1342439424 1048576 5242880 0 84 16777216 1024 50176 4112 0 0 2048 2031616 1055104 0 32 4194304 0 0 2147516418 2147483648 16787456 6293504 134218756 67125264 144 2048 1210646528 0 4352 8 28 48235145 64 32770 131072 536871168 0 131076 2097156 2097152 0 180224 4194312 12288 8393216 2152988688 0 536870928 2147500032 262144 268435968 7168 50331648 536887296 536870912 8192 16785408 0 331776 33554944 4194304 536870913 67108866 34824 68 33554432 1073741824 3 8454144 1 2 1140883456 1050624 64 131104 589824 0 0 536871424 268697600 524288 2148794497 268435585 285212688 33554432 32 75497472 536870912 0 3758096960 2101256 2151940104 0 67109384 0 34 0 262184 514 1064960 0 16777216 67110912 64
is_linear=0
shrinkage=0.05


Tree=14
num_leaves=31
num_cat=24
split_feature=20 15 0 5 0 0 0 0 0 0 0 0 0 13 0 0 0 0 0 13 0 9 0 0 5 0 9 0 0 0
split_gain=337.098 192.574 111.987 91.4762 122.811 89.9306 89.6406 88.6425 58.7935 51.0136 50.5435 45.5371 43.8265 42.5757 110.262 71.489 60.6063 42.6042 42.5494 41.3062 49.6599 41.1538 71.3053 59.573 40.3435 63.2122 45.1884 73.1604 66.8768 54.0244
threshold=5.0950000000000006 589.50000000000011 0 4.535000000000001 1 2 3 4 5 6 7 8 9 23.150000000000002 10 11 12 13 14 8.5500000000000025 15 16 17 18 7.0550000000000006 19 20 21 22 23
decision_type=10 2 9 2 9 9 9 9 9 9 9 9 9 10 9 9 9 9 9 8 9 9 9 9 2 9 9 9 9 9
left_child=2 7 -1 6 -5 -6 -4 -2 -8 -9 -7 -10 -11 14 -14 -16 -15 -18 -17 -12 -21 22 -22 -23 25 -20 27 -27 -28 -30
right_child=1 -3 3 4 5 10 8 9 11 12 19 -13 13 16 15 18 17 -19 24 20 21 23 -24 -25 -26 26 28 -29 29 -31
leaf_value=-0.047605320783170119 -0.021231775969329139 0.039180529031406425 0.013904941492609041 0.032066097812211161 -0.04178418612450141 0.018843909926033933 -0.063506444383968158 -0.01323664759619313 0.0060886731639045481 0.02543440149115575 -0.024364815809065604 -0.022167124277913633 -0.034667128661964378 -0.013381844562387821 0.028654302057522396 -0.01859147561139797 0.04216072749958194 0.013406264078167991 -0.024382283701565085 0.022934828403684517 0.021890788695146338 0.032523072039795597 -0.019206244528738162 -0.0044074980433913055 0.020880338709021458 0.039176387412558494 0.034065905907968076 -0.016487745093120214 -0.022385693652498758 0.0076398446227489607
leaf_weight=187.21725650457665 298.91178099717945 439.52952199615538 197.05170549452305 220.67051892541349 155.34167210478336 218.13786182645708 73.631552378181368 308.55686339829117 161.14474335545674 310.25005845632404 266.41892059519887 1326.4624414290302 172.21770874038339 186.51280689239502 288.77560635190457 202.95082334429026 141.57742870226502 1264.6755962856114 192.54793887492269 155.20456099137664 116.44213195238262 129.95207753404975 713.12864721613005 491.15441078785807 336.32790754921734 59.16596469655633 211.59170234575868 417.97730224858969 156.49909326061606 1536.1937822606415
leaf_count=1142 1163 1408 665 535 662 610 636 1223 647 824 1350 7866 837 473 772 863 268 2919 783 442 328 307 2777 1770 894 141 535 1551 588 5023
internal_value=-2.1026e-11 0.00721879 -0.0106749 -0.0089046 -0.00271366 -0.00624609 -0.0176396 0.00491004 -0.0215719 0.00628643 -0.00341887 -0.0190861 0.00740836 0.00627896 0.00326131 0.00526774 0.0130902 0.0165784 0.00301368 -0.006099 -0.00310664 -0.00600943 -0.0132457 0.00371226 0.00457882 0.00246658 0.00471998 -0.00892285 0.00816713 0.00474864
internal_weight=10936.2 6524.26 4411.96 4224.74 2466.45 2245.78 1758.29 6084.73 1561.24 5785.82 2090.44 1487.61 5477.26 5167.01 3574.25 3402.03 1592.77 1406.25 3113.25 1872.3 1605.88 1450.68 829.571 621.106 2910.3 2573.98 2381.43 477.143 1904.28 1692.69
internal_count=40002 20265 19737 18595 8781 8246 9814 18857 9149 17694 7584 8513 16471 15647 11987 11150 3660 3187 10378 6974 5624 5182 3105 2077 9515 8621 7838 1692 6146 5611
cat_boundaries=0 17 34 51 67 85 103 120 137 155 172 189 207 225 242 259 277 279 297 314 331 333 350 367 385
cat_threshold=4224 8388608 1052673 134217762 25296897 262144 16384 0 0 268435584 0 100663304 262210 32896 4096 32768 2100736 16777216 0 4194304 0 536911872 3 142606336 1696 301989888 150994960 524320 2164260864 0 0 128 16438 4194332 64 2147483648 2362368 1088 16 1753350656 1090519040 40962 2147483648 1077936130 0 0 139264 134218752 33554432 67117056 16384 131072 570966149 2048 147464 268435488 134226064 67109632 32770 0 1077936136 0 0 0 2147483648 134225920 1075838976 150994944 268435456 3225419776 3276808 536879104 3 65542 32 268435456 395280 32 2147483648 0 0 1074790400 6 12 64 0 512 8256 33587200 2097152 0 538968064 16388 537141248 67109376 524288 516 0 1073741824 1034 16390 268959744 32 0 4 536936960 12582912 1073774592 0 528 1024 768 16777216 1024 16842752 12582912 65544 2282225664 680 8192 705167360 268435456 66048 536904192 1074794496 2097408 2147549184 3145728 32768 2048 8388616 64 0 64 1073741824 2147483656 33693696 16384 256 4210688 0 16 541065216 0 4194304 0 1024 1441792 134283266 379584513 134742016 1107296256 67108864 100 82 4224 0 2098176 134217730 131072 1610612736 16384 0 8192 2 0 1711276168 401410 671088768 32 0 136332288 268435488 1 0 2147483648 0 2097152 135266304 524288 4194306 2281701376 1180434 268435456 0 2147483648 18940160 536889600 1048656 2099200 8391680 524480 192 2097153 65536 822091776 67108881 0 268436993 0 131072 67108864 0 33554432 1179648 0 2 0 16640 268435520 802817 0 0 524448 16 33555584 49152 33619968 3 67109888 4456704 4194432 135267328 0 1 1048608 10 0 2147483648 8388608 0 1073741824 34095108 2 0 16464 512 16777280 16384 2306 16793856 2147483792 571555840 67108864 0 2560 4096 0 262208 1073741824 135266432 65608 266368 2048 285212676 16384 393216 1073741824 4194304 268435472 608 0 212992 65536 0 35659776 0 1052672 9437440 18874368 1538 536870912 65546 536870912 142606336 0 1 306618797 34 1280 0 26 4096 0 16384 4227072 0 395264 4160 536903683 536875008 20481 2147491840 285212672 0 0 32 9584640 67110148 139264 0 2048 2147483668 3 0 18 2147483648 33554432 0 557060 1342308352 1097 0 32768 2147516418 256 16384 537395200 2 16384 1082294536 4198400 33685504 536870944 18874380 267264 0 8193 0 524288 1 1679294502 36 0 128 32 0 0 0 6144 131080 16 1048576 0 1048576 2097152 2359296 75497472 8454144 4096 1073741824 0 302125056 16777216 2152204312 135168 1024 268500994 17041408 0 67108864 1048579 1048608 25165824 32768 0 524800 0 160 32 16384 0 32768 0 3276864 4 1572864 536936448 4210688 4096 135234 603979776 2155872256 2147581952 24
is_linear=0
shrinkage=0.05


Tree=15
num_leaves=31
num_cat=21
split_feature=5 15 5 0 0 0 0 5 0 0 0 0 24 0 0 0 0 9 0 0 0 0 13 0 20 0 0 11 31 0
split_gain=305.917 164.503 103.588 76.533 59.8548 58.911 54.4706 51.671 46.9841 44.8939 40.7464 39.0825 35.1186 101.238 50.1688 46.5448 35.9929 34.8332 95.6371 82.7075 64.8829 56.9907 37.1638 35.5432 34.2743 35.9057 34.1289 32.492 31.5384 96.3781
threshold=5.8650000000000011 589.50000000000011 4.6150000000000011 0 1 2 3 2.8050000000000002 4 5 6 7 0.093640572106045664 8 9 10 11 12 13 14 15 16 9.3500000000000032 17 4.4850000000000012 18 19 49.750000000000007 20.150000000000002 20
decision_type=2 2 2 9 9 9 9 2 9 9 9 9 2 9 9 9 9 9 9 9 9 9 8 9 8 9 9 10 10 9
left_child=2 4 6 -4 -2 27 -1 -8 -9 -6 -7 -10 15 -14 -15 -13 -16 18 -11 -19 -20 -21 -23 -22 -12 -26 -24 -5 -17 -30
right_child=1 -3 3 5 9 10 7 8 11 17 24 12 13 14 16 28 -18 19 20 21 23 22 26 -25 25 -27 -28 -29 29 -31
leaf_value=-0.050529533610780858 -0.016771478886054757 0.041870215380636254 -0.038290013798043726 0.012776680844632404 0.029499445444078339 -0.025747857365336982 -0.046650239401042466 0.010168778709566157 -0.043328507751861409 -0.027385941304516638 -0.025755315182919816 0.016008085186815107 0.027278550362833717 0.011163331456718859 0.00014093937731514511 -0.0058117305009185421 -0.056136069195539241 0.034876841220130614 0.03986133403948202 -0.037506554376472823 0.030714114828130232 -0.024232479293066388 0.024367222037456247 0.0082135261902087919 0.016110673819451637 -0.0021328576238019026 -0.0013907718340884531 0.054993665011755205 0.026549543300185125 -0.031043324184242684
leaf_weight=100.00143512710929 242.9070517513901 365.78594332095236 132.07964461110532 241.41611713543534 229.3169570621103 172.88495136797428 114.21279648412019 209.48243991658092 105.19737125467509 148.91650380194187 139.01347916061059 156.80888794828206 67.601900815032423 45.082450125366449 42.467485083267093 741.83089557150379 211.95760450232774 141.28328129649162 196.53089496865869 107.32927174307406 187.19385711848736 143.19833652302623 146.91372632607818 2011.8793158493936 288.56353372428566 2780.9580895393156 712.51103343255818 56.183391846716404 81.112183336168528 428.59431503666565
leaf_count=807 1019 1241 705 709 513 760 986 730 735 606 693 529 208 198 186 3213 1702 363 406 404 433 587 353 5706 834 9844 2103 95 288 3046
internal_value=-3.47712e-11 0.00969014 -0.00734237 -0.00228225 0.00693216 -0.00088307 -0.0157111 -0.0138396 -0.0121129 0.00838348 -0.0027811 -0.0145714 -0.0126344 -0.0264789 -0.0382463 -0.00911528 -0.0470925 0.00703362 0.010391 0.000177857 0.0128433 -0.00451087 -0.000643228 0.0102592 -0.00146744 -0.000372259 0.00327976 0.0200723 -0.0122927 -0.0219664
internal_weight=10749.2 4633.77 6115.45 3811.1 4267.98 3679.02 2304.35 2204.35 2090.14 4025.07 3381.42 1880.65 1775.46 367.109 299.508 1408.35 254.425 3795.76 2544.52 1251.24 2395.6 1109.95 1002.62 2199.07 3208.54 3069.52 859.425 297.6 1251.54 509.706
internal_count=40002 13734 26268 13640 12493 12935 12628 11821 10835 11474 12131 10105 9370 2294 2086 7076 1888 10961 7151 3810 6545 3447 3043 6139 11371 10678 2456 804 6547 3334
cat_boundaries=0 17 35 53 70 88 105 123 141 158 175 193 208 210 225 240 257 274 292 309 326 341
cat_threshold=2097666 32768 41943040 33280 33620992 270336 17152 536870912 0 67108864 134217728 0 320 0 134217761 2097152 2181038144 16777216 0 537396224 8388609 32 4194305 0 268435520 256 401408 0 2 16777220 16777216 1572864 29312 526336 1 0 71311360 0 134217728 131072 2147484672 0 1040 0 134217796 335544320 8 33554448 84148224 8 2148556832 549586944 1 0 79692800 0 2 539103232 36868 2097152 0 8192 64 538976256 540688 0 0 805339144 2147532804 25165824 2097154 260 8389760 520 135266304 131216 268435968 64 1048576 8 0 419430400 69206016 134217736 8388864 2097152 96 2 67109376 1024 33554690 32768 0 33024 1064960 2147490176 50331648 512 0 0 2 0 268436512 4 2181333136 0 0 4194690 65536 0 136445952 270008320 2260734088 50331648 264 1024 8192 67108864 0 4 0 128 112 3221245952 3221233664 256 33556612 0 16777536 1 134217728 0 150995104 0 8392712 1048576 0 2181038096 1048576 536870912 4 512 131073 4202496 537001984 177 1140852736 1054720 0 163840 0 134217728 1024 1 2147549184 0 131104 128 0 2621448 0 0 33570824 32 67109888 536903688 2150105088 0 33685504 2684354560 1610612736 524352 0 0 2147745792 134217729 0 50382848 65536 0 512 1078460416 71305218 4194304 3231711232 0 0 589824 768 67108867 16 4 32 0 32 2 2281701376 2147484672 134226944 256 418 0 1 2 128 268451840 537919488 16384 1021446529 106 0 128 268439552 4980744 1441793 1024 1073741896 0 225 589824 1 0 1048576 2048 393216 16640 0 0 302514178 1048576 0 1073873160 536871424 193 589824 8192 2684878848 2048 1073741824 163840 128 134219776 133124 1073745920 67706880 33554946 2151710720 8 2048 0 33554432 16777472 1207959552 268435456 33554944 65536 65 4194432 2 2147483648 2097152 2048 2147483648 34 2 512 32768 50856456 16777216 1073741824 134283264 2097152 1049856 2 536870912 74 128 2147483648 8391426 2048 570425344 8388608 67108864 256 17301580 18432 524288 65536 0 0 201327620 16 32800 0 533568 67108868 2147749888 1 18874368 1 0 4096 33554464 557586 4 2049 64 83886080 268959744 64 25166080 268697600 71565312 0 536870916 0 0 131112 100663296 142622848 411303936 268435456 2147746816 0 301989888 2097152 25165824 570949632 96 131072 8 0 2147484672 16811520 0 4096 268959744 262144 583008256 4456449 2048
is_linear=0
shrinkage=0.05


Tree=16
num_leaves=31
num_cat=24
split_feature=5 15 25 0 0 0 20 0 0 0 0 0 0 0 0 0 25 0 0 0 9 0 0 9 0 0 0 0 0 20
split_gain=273.589 178.824 76.0589 73.1766 58.4031 54.6903 59.15 114.121 85.7911 66.8612 57.6908 56.9584 53.4042 45.8908 45.5168 43.6811 42.5181 90.381 68.4293 43.4964 39.908 59.2572 41.9694 36.8855 107.313 99.9707 61.7942 49.841 37.7031 36.1456
threshold=5.0550000000000006 594.50000000000011 2.5500000000000003 0 1 2 4.4600000000000009 3 4 5 6 7 8 9 10 11 4.2250000000000005 12 13 14 15 16 17 18 19 20 21 22 23 7.4300000000000006
decision_type=2 2 2 9 9 9 10 9 9 9 9 9 9 9 9 9 2 9 9 9 9 9 9 9 9 9 9 9 9 8
left_child=5 2 4 -4 -2 -1 8 -8 -7 -9 -11 -10 -5 -6 -13 -12 18 -18 -14 -20 -17 -22 -23 25 -25 -16 -26 -27 -29 -15
right_child=1 -3 3 12 13 6 7 9 11 10 15 14 16 29 23 20 17 -19 19 -21 21 22 -24 24 26 27 -28 28 -30 -31
leaf_value=-0.042031720600168791 0.040538020224330999 0.038636198621163721 -0.028494002824761042 0.022793208491012053 -0.019276775247859181 0.017727148980880479 0.039895012055659713 0.025964610613169327 -0.055303140979568538 -0.046274280719462421 0.019097540942943147 0.0070384903568324678 -0.028426989450094003 0.0085087609210229825 0.032314502277549 0.0064189373084136709 0.032213996286253259 -0.020595187204684378 0.025367653154363564 0.0023360014549745622 0.018861298926144188 0.0089622303895555058 -0.028589994573244838 0.021012347539771901 0.0047517364680979592 0.015002138291513542 -0.043366083118386259 0.0091458229275619314 -0.029138793755069017 0.029378676679404688
leaf_weight=133.56040403712541 159.44674024358392 386.75390029139817 199.02597586810589 273.17226416897029 121.02475280687213 166.78106868779287 133.21666256897151 127.50049276743084 97.588972783647478 96.686090270057321 127.81511300522834 178.07593627739698 163.71412681788206 1295.6071347463876 101.70934646716341 236.9077474726364 88.298448910005391 487.02688097301871 208.17735109291971 3528.6327091986313 92.493612980470061 87.246895327232778 510.7788154873997 90.70935757830739 82.599915821105242 89.585719001479447 494.79574794461951 73.874877353198826 516.70919249672443 247.02617265842855
leaf_count=960 333 1353 840 713 344 634 340 397 698 490 437 708 617 3583 333 1001 211 1846 594 11606 315 343 2616 326 400 325 3384 317 3333 605
internal_value=8.85408e-11 0.00556848 0.00367973 0.000463086 0.0124099 -0.0115914 -0.0102033 -0.00249219 -0.0160133 -0.00716148 -0.0110199 -0.0192653 0.00173299 0.00941386 -0.0167807 -0.00738568 0.000399691 -0.0122883 0.00227219 0.00368337 -0.0112003 -0.0172506 -0.0230541 -0.0197342 -0.0285131 -0.0119674 -0.0365188 -0.0189614 -0.0242773 0.0117744
internal_weight=10596.5 7157.91 6771.15 4948.05 1823.1 3438.64 3305.08 1412.65 1892.43 1279.43 1151.93 1725.65 4749.02 1663.66 1628.06 1055.24 4475.85 575.325 3900.52 3736.81 927.427 690.519 598.026 1449.98 668.105 781.879 577.396 680.17 590.584 1542.63
internal_count=40002 22645 21292 16427 4865 17357 16397 5939 10458 5599 5202 9824 15587 4532 9126 4712 14874 2057 12817 12200 4275 3274 2959 8418 4110 4308 3784 3975 3650 4188
cat_boundaries=0 18 35 52 69 87 105 123 140 157 175 191 208 225 242 259 261 278 296 298 315 332 349 366 383
cat_threshold=2147483648 1073741826 8192 12584497 0 67174400 16777232 67108864 0 16384 320 16778240 8 0 2164269056 524288 4456448 32 0 1073741826 0 33554432 10486016 67108928 16793600 67111172 262144 512 0 67109888 12 16777218 8192 32 201359360 8427584 4194368 0 1073741824 2232576 50331656 0 0 8 17825792 805306368 67108864 2048 1073774592 536904704 0 134222848 3221225504 0 64 218104976 0 134807553 2097153 0 1048576 2097408 64 67584 67108864 512 1073741824 0 4718596 16 1610612996 550912 520 64 2097152 0 1346371584 16384 0 4202544 66 138412064 67108936 0 2 0 64 2 134221952 196737 33554720 17408 256 2415919104 67108864 268468224 536870913 0 33554432 0 0 2147483649 4734976 1050688 32 0 1610612768 0 2147483648 4 0 4352 1879179520 0 272629760 16 4194304 17334272 67698698 0 1073741856 16384 80 8 33554432 4 117440512 16384 2282487808 0 0 537919488 136315136 0 73856 67108868 268435588 8 8650752 67110912 0 64 0 1073743872 295424 16777218 135397376 36700160 268435456 1032 503316481 131072 526336 4194304 1026 268435456 2048 65540 1048576 1 1050624 32768 8192 0 18874368 268435456 263168 2214592512 2148597760 1056 4194304 1073741826 0 64 3 131072 67108864 1048608 0 52 8322 67635456 537001984 2290089984 2048 25296896 20971520 2097153 2162690 0 1075838976 268435456 33554434 6 65536 524288 0 1073750016 98305 0 134222464 0 3153920 262144 302254084 10 8193 8388768 3456 4194568 0 524288 8388608 4096 67109000 0 1040 1 4210688 67108864 4608 8192 2129920 16 2 286263296 35651584 128 65536 8388624 0 2149646464 268435712 2622464 134217729 8192 0 33554433 0 32768 1025 4 40960 8193 528 16384 268435456 33562624 33558624 1090519040 2181038080 0 2147484672 2097152 32784 260 0 4104 32768 302416140 45 138412296 16384 2113536 0 1073743872 100 0 0 16777216 0 1073807360 4 0 155190400 402673664 262148 268435456 553648129 2416967680 0 0 32 8519680 536871424 0 637599744 67108928 8650752 16777216 2149597184 0 4194368 0 603979776 4 1320780993 202 134217728 268959744 66560 2415919104 33554432 67239936 318832640 524352 0 1073741824 0 142607360 81920 2147483648 132 32 16456 84410368 131072 25165824 0 8 1610613248 266240 134220288 0 4194304 134250497 2147483904 33032 0 33571072 536936456 32 536945152 16777248 33554944 4096 2151677952 4144 1024 67108872 2162688 524290 524288 537133064 0 0 4194338 0 301990144 2149580800 17417 144 147456 134250496 0 0 1049600 0 33559568 4 268435456 528448 0 0 4 131072 301989888 0 0 65536 1572865 16384 4194305 12290 4196352 268435464 0 32 1073741824 159908097 16785408 16 262144
is_linear=0
shrinkage=0.05


Tree=17
num_leaves=31
num_cat=18
split_feature=20 15 0 0 5 0 0 0 0 4 0 0 20 0 0 20 0 25 0 26 9 6 0 0 20 0 31 0 0 13
split_gain=247.878 136.235 103.601 95.9637 89.5729 83.7827 81.8734 70.106 68.2948 57.9358 90.9512 60.9218 48.2766 47.8879 43.6303 41.4397 44.1621 40.7296 40.9059 38.6791 37.3189 34.2072 82.1325 76.4333 33.6179 51.5536 37.8728 64.425 59.8946 50.9295
threshold=5.4650000000000007 589.50000000000011 0 1 4.3350000000000009 2 3 4 5 1.5000000000000002 6 7 5.0650000000000004 8 9 4.3150000000000004 10 4.8166666666666673 11 0.036597114526058509 12 37.105000000000011 13 14 7.6800000000000006 15 45.350000000000001 16 17 15.65
decision_type=10 2 9 9 2 9 9 9 9 2 9 9 8 9 9 8 9 2 9 8 9 2 9 9 10 9 10 9 9 10
left_child=2 3 -1 -2 6 19 -4 -5 -7 12 -11 -12 -10 -9 -8 -13 -17 18 20 -6 -15 23 -23 -16 25 -20 27 -27 -28 -29
right_child=1 -3 4 7 5 8 14 13 9 10 11 15 -14 17 21 16 -18 -19 24 -21 -22 22 -24 -25 -26 26 28 29 -30 -31
